{"learner":{"attributes":{"scikit_learn":"{\"_estimator_type\": \"regressor\"}"},"feature_names":[],"feature_types":[],"gradient_booster":{"model":{"gbtree_model_param":{"num_parallel_tree":"1","num_trees":"100"},"iteration_indptr":[0,1,2,3,4,5,6,7,8,9,10,11,12,13,14,15,16,17,18,19,20,21,22,23,24,25,26,27,28,29,30,31,32,33,34,35,36,37,38,39,40,41,42,43,44,45,46,47,48,49,50,51,52,53,54,55,56,57,58,59,60,61,62,63,64,65,66,67,68,69,70,71,72,73,74,75,76,77,78,79,80,81,82,83,84,85,86,87,88,89,90,91,92,93,94,95,96,97,98,99,100],"tree_info":[0,0,0,0,0,0,0,0,0,0,0,0,0,0,0,0,0,0,0,0,0,0,0,0,0,0,0,0,0,0,0,0,0,0,0,0,0,0,0,0,0,0,0,0,0,0,0,0,0,0,0,0,0,0,0,0,0,0,0,0,0,0,0,0,0,0,0,0,0,0,0,0,0,0,0,0,0,0,0,0,0,0,0,0,0,0,0,0,0,0,0,0,0,0,0,0,0,0,0,0],"trees":[{"base_weights":[6.1905176E-8,-6.9006115E-1,6.900613E-1,-1.0162209E0,-3.8915423E-1,5.585278E-1,2.7491575E-1,-3.3511403E-1,-2.3544902E-1,-5.161761E-1,-1.9836864E-1,5.035024E-1,6.249199E-1,-1.731706E-1,-1.2567206E-1,-7.6833956E-2,-1.1585062E-1,1.2821822E-1,1.742343E-1,1.3877355E-1,2.0461656E-1,6.157065E-3,-1.270576E-1,-4.0693082E-2,-1.5108324E-2],"categories":[],"categories_nodes":[],"categories_segments":[],"categories_sizes":[],"default_left":[0,0,0,0,0,0,0,0,0,0,0,0,0,0,0,0,0,0,0,0,0,0,0,0,0],"id":0,"left_children":[1,3,5,7,9,11,-1,-1,-1,13,15,17,19,-1,-1,-1,21,-1,-1,-1,-1,-1,23,-1,-1],"loss_changes":[1.3618875E2,1.36390915E1,3.7451782E0,7.097626E-1,1.7393875E0,2.5104523E-2,0E0,0E0,0E0,2.5454521E-2,1.2280798E-1,8.114338E-2,3.6964417E-2,0E0,0E0,0E0,2.5532827E-2,0E0,0E0,0E0,0E0,0E0,2.388075E-3,0E0,0E0],"parents":[2147483647,0,0,1,1,2,2,3,3,4,4,5,5,9,9,10,10,11,11,12,12,16,16,22,22],"right_children":[2,4,6,8,10,12,-1,-1,-1,14,16,18,20,-1,-1,-1,22,-1,-1,-1,-1,-1,24,-1,-1],"split_conditions":[7.1486263E0,4E0,7.3065934E0,3E0,7.095972E0,2.3981693E2,2.7491575E-1,-3.3511403E-1,-2.3544902E-1,7.062088E0,7.1252747E0,7.2695055E0,7.182967E0,-1.731706E-1,-1.2567206E-1,-7.6833956E-2,1.8525772E1,1.2821822E-1,1.742343E-1,1.3877355E-1,2.0461656E-1,6.157065E-3,1.693197E2,-4.0693082E-2,-1.5108324E-2],"split_indices":[2,5,2,5,2,1,0,0,0,2,2,2,2,0,0,0,0,0,0,0,0,0,1,0,0],"split_type":[0,0,0,0,0,0,0,0,0,0,0,0,0,0,0,0,0,0,0,0,0,0,0,0,0],"sum_hessian":[2.84E2,1.42E2,1.42E2,6.7E1,7.5E1,9.2E1,5E1,4.4E1,2.3E1,4.4E1,3.1E1,5.5E1,3.7E1,2.4E1,2E1,1.7E1,1.4E1,3.1E1,2.4E1,1.2E1,2.5E1,1E0,1.3E1,1.1E1,2E0],"tree_param":{"num_deleted":"0","num_feature":"7","num_nodes":"25","size_leaf_vector":"1"}},{"base_weights":[-2.635437E-4,-4.90007E-1,4.8948178E-1,-7.340121E-1,-2.886778E-1,4.0825033E-1,2.0653397E-1,-2.5981653E-1,-1.8994051E-1,-3.6967763E-1,-1.2504683E-1,8.014963E-2,1.256412E-1,-1.3409758E-1,-9.2782594E-2,-4.347162E-2,-4.4770446E-2,5.233491E-3,-1.7414153E-2],"categories":[],"categories_nodes":[],"categories_segments":[],"categories_sizes":[],"default_left":[0,0,0,0,0,0,0,0,0,0,0,0,0,0,0,0,0,0,0],"id":1,"left_children":[1,3,5,7,9,11,-1,-1,-1,13,15,-1,-1,-1,-1,-1,17,-1,-1],"loss_changes":[6.859698E1,6.8130302E0,2.030136E0,3.0415726E-1,1.0140991E0,4.296112E-2,0E0,0E0,0E0,1.09264374E-1,3.8149297E-2,0E0,0E0,0E0,0E0,0E0,6.7947526E-3,0E0,0E0],"parents":[2147483647,0,0,1,1,2,2,3,3,4,4,5,5,9,9,10,10,16,16],"right_children":[2,4,6,8,10,12,-1,-1,-1,14,16,-1,-1,-1,-1,-1,18,-1,-1],"split_conditions":[7.1486263E0,9.322384E0,7.327198E0,2E0,7.1046705E0,7.1623626E0,2.0653397E-1,-2.5981653E-1,-1.8994051E-1,6.033778E1,1.5695088E2,8.014963E-2,1.256412E-1,-1.3409758E-1,-9.2782594E-2,-4.347162E-2,1.8525772E1,5.233491E-3,-1.7414153E-2],"split_indices":[2,0,2,5,2,2,0,0,0,1,1,0,0,0,0,0,0,0,0],"split_type":[0,0,0,0,0,0,0,0,0,0,0,0,0,0,0,0,0,0,0],"sum_hessian":[2.84E2,1.42E2,1.42E2,6.3E1,7.9E1,1.03E2,3.9E1,2.4E1,3.9E1,5.2E1,2.7E1,9E0,9.4E1,2E1,3.2E1,2.1E1,6E0,1E0,5E0],"tree_param":{"num_deleted":"0","num_feature":"7","num_nodes":"19","size_leaf_vector":"1"}},{"base_weights":[-1.3071395E-3,-3.4812585E-1,3.455207E-1,-5.420018E-1,-2.1710223E-1,2.9626328E-1,1.563545E-1,-1.8498933E-1,-1.4071205E-1,-2.8779253E-1,-1.0896336E-1,2.694113E-1,1.0874052E-1,-9.765539E-2,-2.3021631E-1,-1.463575E-1,-5.856065E-2,2.0347448E-1,3.2622802E-1,-7.074762E-2,-1.51811605E-2,-5.094423E-2,-3.177585E-2,4.448462E-3,-6.407422E-2,1.2233623E-1,7.1902335E-2,7.1861744E-2,1.14759006E-1,-5.0226334E-3,-1.9834068E-2,3.8668588E-2,4.576421E-3],"categories":[],"categories_nodes":[],"categories_segments":[],"categories_sizes":[],"default_left":[0,0,0,0,0,0,0,0,0,0,0,0,0,0,0,0,0,0,0,0,0,0,0,0,0,0,0,0,0,0,0,0,0],"id":2,"left_children":[1,3,5,7,9,11,-1,-1,-1,13,15,17,-1,-1,19,21,23,25,27,-1,-1,-1,-1,-1,29,31,-1,-1,-1,-1,-1,-1,-1],"loss_changes":[3.44019E1,3.5148659E0,1.0829144E0,2.1144867E-2,6.337013E-1,1.0500908E-1,0E0,0E0,0E0,3.800869E-2,5.9280753E-2,2.5205755E-1,0E0,0E0,1.2245297E-2,9.841323E-4,7.828888E-3,9.4041586E-2,1.23122215E-1,0E0,0E0,0E0,0E0,0E0,4.3753535E-4,8.569032E-3,0E0,0E0,0E0,0E0,0E0,0E0,0E0],"parents":[2147483647,0,0,1,1,2,2,3,3,4,4,5,5,9,9,10,10,11,11,14,14,15,15,16,16,17,17,18,18,24,24,25,25],"right_children":[2,4,6,8,10,12,-1,-1,-1,14,16,18,-1,-1,20,22,24,26,28,-1,-1,-1,-1,-1,30,32,-1,-1,-1,-1,-1,-1,-1],"split_conditions":[7.1486263E0,7.5353885E0,7.3436813E0,2E0,9.595505E1,7.292857E0,1.563545E-1,-1.8498933E-1,-1.4071205E-1,1.3680732E1,7.1225276E0,2.2459842E2,1.0874052E-1,-9.765539E-2,8.927818E0,1.8411852E1,1.8525772E1,7.2516484E0,7.187088E0,-7.074762E-2,-1.51811605E-2,-5.094423E-2,-3.177585E-2,4.448462E-3,7.123901E0,2.6739931E1,7.1902335E-2,7.1861744E-2,1.14759006E-1,-5.0226334E-3,-1.9834068E-2,3.8668588E-2,4.576421E-3],"split_indices":[2,0,2,5,1,2,0,0,0,0,2,1,0,0,3,0,0,2,2,0,0,0,0,0,2,0,0,0,0,0,0,0,0],"split_type":[0,0,0,0,0,0,0,0,0,0,0,0,0,0,0,0,0,0,0,0,0,0,0,0,0,0,0,0,0,0,0,0,0],"sum_hessian":[2.84E2,1.42E2,1.42E2,5.6E1,8.6E1,1.13E2,2.9E1,2.4E1,3.2E1,5.1E1,3.5E1,8.4E1,2.9E1,2.8E1,2.3E1,1.9E1,1.6E1,4.1E1,4.3E1,2.2E1,1E0,1E1,9E0,1E0,1.5E1,1.4E1,2.7E1,1.9E1,2.4E1,1E0,1.4E1,1.3E1,1E0],"tree_param":{"num_deleted":"0","num_feature":"7","num_nodes":"33","size_leaf_vector":"1"}},{"base_weights":[-1.074806E-3,-2.479707E-1,2.458286E-1,-3.8511527E-1,-1.5526712E-1,2.1226726E-1,1.1464689E-1,-1.23449855E-1,-8.514184E-2,-1.9974808E-1,-6.84709E-2,1.8953617E-1,7.6360874E-2,-6.911252E-2,-4.441113E-2,-9.699305E-2,-4.2483065E-2,1.3320132E-1,2.32601E-1,-4.180773E-2,-3.0811992E-2,3.7811997E-3,-4.646489E-2,7.0525624E-2,1.5082832E-1,4.50905E-2,7.867956E-2,-1.7679764E-2,-1.1337162E-3,-1.4870658E-2,-4.6370267E-3,2.7150925E-2,5.3801E-3,4.6500646E-2,1.9313693E-2],"categories":[],"categories_nodes":[],"categories_segments":[],"categories_sizes":[],"default_left":[0,0,0,0,0,0,0,0,0,0,0,0,0,0,0,0,0,0,0,0,0,0,0,0,0,0,0,0,0,0,0,0,0,0,0],"id":3,"left_children":[1,3,5,7,9,11,-1,-1,-1,13,15,17,-1,-1,-1,19,21,23,25,27,-1,-1,29,31,33,-1,-1,-1,-1,-1,-1,-1,-1,-1,-1],"loss_changes":[1.7434397E1,1.7582769E0,5.7315445E-1,3.5573006E-2,3.2221103E-1,6.417179E-2,0E0,0E0,0E0,5.616975E-2,1.8857554E-2,1.631012E-1,0E0,0E0,0E0,1.2034178E-4,4.5338944E-3,3.023976E-2,6.800008E-2,1.7309925E-3,0E0,0E0,8.700453E-4,8.883484E-3,1.2421608E-4,0E0,0E0,0E0,0E0,0E0,0E0,0E0,0E0,0E0,0E0],"parents":[2147483647,0,0,1,1,2,2,3,3,4,4,5,5,9,9,10,10,11,11,15,15,16,16,17,17,18,18,19,19,22,22,23,23,24,24],"right_children":[2,4,6,8,10,12,-1,-1,-1,14,16,18,-1,-1,-1,20,22,24,26,28,-1,-1,30,32,34,-1,-1,-1,-1,-1,-1,-1,-1,-1,-1],"split_conditions":[7.1486263E0,7.5353885E0,7.349176E0,4.4425287E0,1.8411852E1,7.2846155E0,1.1464689E-1,-1.23449855E-1,-8.514184E-2,6.9057785E1,7.118407E0,2.2459842E2,7.6360874E-2,-6.911252E-2,-4.441113E-2,8.125988E0,1.8525772E1,7.240659E0,7.1788464E0,2.009761E1,-3.0811992E-2,3.7811997E-3,1.693197E2,2.3425587E1,2.408893E1,4.50905E-2,7.867956E-2,-1.7679764E-2,-1.1337162E-3,-1.4870658E-2,-4.6370267E-3,2.7150925E-2,5.3801E-3,4.6500646E-2,1.9313693E-2],"split_indices":[2,0,2,0,0,2,0,0,0,1,2,1,0,0,0,3,0,2,2,0,0,0,1,0,0,0,0,0,0,0,0,0,0,0,0],"split_type":[0,0,0,0,0,0,0,0,0,0,0,0,0,0,0,0,0,0,0,0,0,0,0,0,0,0,0,0,0,0,0,0,0,0,0],"sum_hessian":[2.84E2,1.42E2,1.42E2,5.6E1,8.6E1,1.16E2,2.6E1,4.2E1,1.4E1,5.6E1,3E1,7.9E1,3.7E1,3.3E1,2.3E1,1.3E1,1.7E1,3.6E1,4.3E1,2E0,1.1E1,1E0,1.6E1,9E0,2.7E1,1.3E1,3E1,1E0,1E0,1.4E1,2E0,6E0,3E0,2.5E1,2E0],"tree_param":{"num_deleted":"0","num_feature":"7","num_nodes":"35","size_leaf_vector":"1"}},{"base_weights":[-6.62331E-4,-1.7628904E-1,1.7496902E-1,-2.6799238E-1,-1.0676866E-1,1.547263E-1,9.208426E-2,-9.6158825E-2,-2.2525133E-1,-1.474184E-1,-5.9384726E-2,5.6723546E-2,1.3593197E-1,-6.846721E-2,-1.7735196E-2,-5.3118978E-2,-3.8782492E-2,-2.5327636E-2,-3.5059344E-2,1.0157941E-1,1.6563368E-1,-4.3770123E-2,-1.4344215E-2,6.897202E-2,1.2808742E-1,1.4216608E-1,7.6040134E-2,-9.636641E-4,-1.3931302E-2,3.214002E-3,-5.8363033E-3,2.396029E-2,8.526516E-3,3.958697E-2,7.0252777E-3,3.2529593E-2,4.677622E-2],"categories":[],"categories_nodes":[],"categories_segments":[],"categories_sizes":[],"default_left":[0,0,0,0,0,0,0,0,0,0,0,0,0,0,0,0,0,0,0,0,0,0,0,0,0,0,0,0,0,0,0,0,0,0,0,0,0],"id":4,"left_children":[1,3,5,7,9,11,-1,-1,13,15,17,-1,19,-1,-1,-1,-1,-1,21,23,25,27,29,31,33,35,-1,-1,-1,-1,-1,-1,-1,-1,-1,-1,-1],"loss_changes":[8.821828E0,8.830476E-1,3.3454657E-1,6.477499E-2,1.5111548E-1,5.5646896E-2,0E0,0E0,4.7810078E-3,7.760525E-4,2.1405116E-2,0E0,6.9903016E-2,0E0,0E0,0E0,0E0,0E0,3.3419412E-3,2.7468532E-2,5.46602E-2,1.4736857E-3,1.2327994E-3,7.0082545E-3,5.8194995E-3,2.6124716E-4,0E0,0E0,0E0,0E0,0E0,0E0,0E0,0E0,0E0,0E0,0E0],"parents":[2147483647,0,0,1,1,2,2,3,3,4,4,5,5,8,8,9,9,10,10,12,12,18,18,19,19,20,20,21,21,22,22,23,23,24,24,25,25],"right_children":[2,4,6,8,10,12,-1,-1,14,16,18,-1,20,-1,-1,-1,-1,-1,22,24,26,28,30,32,34,36,-1,-1,-1,-1,-1,-1,-1,-1,-1,-1,-1],"split_conditions":[7.1486263E0,8.804283E0,7.364286E0,2E0,7.082692E0,1.6659548E1,9.208426E-2,-9.6158825E-2,2.9E1,4.24378E1,7.114286E0,5.6723546E-2,2.2459842E2,-6.846721E-2,-1.7735196E-2,-5.3118978E-2,-3.8782492E-2,-2.5327636E-2,1.4065526E2,7.262637E0,7.2173076E0,7.115659E0,1.8525772E1,1.8E1,9.516167E0,7.1788464E0,7.6040134E-2,-9.636641E-4,-1.3931302E-2,3.214002E-3,-5.8363033E-3,2.396029E-2,8.526516E-3,3.958697E-2,7.0252777E-3,3.2529593E-2,4.677622E-2],"split_indices":[2,0,2,5,2,0,0,0,6,1,2,0,1,0,0,0,0,0,1,2,2,2,0,6,3,2,0,0,0,0,0,0,0,0,0,0,0],"split_type":[0,0,0,0,0,0,0,0,0,0,0,0,0,0,0,0,0,0,0,0,0,0,0,0,0,0,0,0,0,0,0,0,0,0,0,0,0],"sum_hessian":[2.84E2,1.42E2,1.42E2,6E1,8.2E1,1.25E2,1.7E1,2.4E1,3.6E1,4.3E1,3.9E1,4.1E1,8.4E1,3.5E1,1E0,1.3E1,3E1,1.8E1,2.1E1,4.1E1,4.3E1,1.4E1,7E0,2E1,2.1E1,3.6E1,7E0,1E0,1.3E1,1E0,6E0,1.5E1,5E0,2E1,1E0,1.3E1,2.3E1],"tree_param":{"num_deleted":"0","num_feature":"7","num_nodes":"37","size_leaf_vector":"1"}},{"base_weights":[-2.3157554E-4,-1.2561987E-1,1.2515834E-1,-1.7563288E-1,-6.114081E-2,1.13000356E-1,7.823443E-2,-2.2686352E-1,-1.4368439E-1,-8.0089144E-2,-2.8377838E-2,4.156971E-2,9.88044E-2,-6.919756E-2,-1.809057E-2,-1.5696931E-1,-3.3704706E-2,-8.5961096E-2,-4.012694E-2,-3.4141228E-2,-8.680378E-3,7.688542E-2,1.1947414E-1,-1.676251E-1,-3.0415464E-2,-2.6280208E-2,-4.7781947E-3,-2.8201104E-3,-1.3104392E-2,-2.8130699E-2,-1.7046142E-2,2.3868561E-3,-7.2696926E-3,5.4996092E-2,3.0777523E-2,1.0036342E-1,5.479264E-2,-2.323925E-2,-5.2700263E-2,-1.1616612E-2,-2.2405488E-3,-3.3087016E-3,4.5021297E-3,1.8014658E-2,3.2791437E-3,3.150078E-2,1.7900134E-2],"categories":[],"categories_nodes":[],"categories_segments":[],"categories_sizes":[],"default_left":[0,0,0,0,0,0,0,0,0,0,0,0,0,0,0,0,0,0,0,0,0,0,0,0,0,0,0,0,0,0,0,0,0,0,0,0,0,0,0,0,0,0,0,0,0,0,0],"id":5,"left_children":[1,3,5,7,9,11,-1,13,15,17,19,-1,21,-1,-1,23,-1,25,27,29,31,33,35,37,-1,-1,-1,-1,-1,39,-1,41,-1,43,-1,45,-1,-1,-1,-1,-1,-1,-1,-1,-1,-1,-1],"loss_changes":[4.4966145E0,4.504068E-1,2.0632482E-1,9.834242E-2,3.7458673E-2,3.4578085E-2,0E0,4.421711E-3,4.011631E-3,5.9369206E-3,2.541747E-3,0E0,3.1136394E-2,0E0,0E0,3.1433702E-3,0E0,2.508849E-3,3.538737E-4,9.915698E-4,1.2626569E-3,2.0241797E-2,3.478557E-2,5.97018E-3,0E0,0E0,0E0,0E0,0E0,3.431091E-3,0E0,1.0120703E-3,0E0,5.3552687E-3,0E0,5.314946E-4,0E0,0E0,0E0,0E0,0E0,0E0,0E0,0E0,0E0,0E0,0E0],"parents":[2147483647,0,0,1,1,2,2,3,3,4,4,5,5,7,7,8,8,9,9,10,10,12,12,15,15,17,17,18,18,19,19,20,20,21,21,22,22,23,23,29,29,31,31,33,33,35,35],"right_children":[2,4,6,8,10,12,-1,14,16,18,20,-1,22,-1,-1,24,-1,26,28,30,32,34,36,38,-1,-1,-1,-1,-1,40,-1,42,-1,44,-1,46,-1,-1,-1,-1,-1,-1,-1,-1,-1,-1,-1],"split_conditions":[7.1486263E0,1.2288993E1,7.3793955E0,2.9191737E0,7.1101646E0,1.6257158E1,7.823443E-2,2.8E1,4.0413517E1,8.780943E0,1.5695088E2,4.156971E-2,2.2459842E2,-6.919756E-2,-1.809057E-2,2.3E1,-3.3704706E-2,1.1445157E2,6.7696E1,8.872755E0,2.2956436E1,7.2708793E0,7.2159343E0,3.3284206E0,-3.0415464E-2,-2.6280208E-2,-4.7781947E-3,-2.8201104E-3,-1.3104392E-2,8.675773E0,-1.7046142E-2,1.6210683E2,-7.2696926E-3,2.8E1,3.0777523E-2,2.5656057E1,5.479264E-2,-2.323925E-2,-5.2700263E-2,-1.1616612E-2,-2.2405488E-3,-3.3087016E-3,4.5021297E-3,1.8014658E-2,3.2791437E-3,3.150078E-2,1.7900134E-2],"split_indices":[2,0,2,0,2,0,0,6,1,3,1,0,1,0,0,6,0,1,1,3,0,2,2,0,0,0,0,0,0,3,0,1,0,6,0,0,0,0,0,0,0,0,0,0,0,0,0],"split_type":[0,0,0,0,0,0,0,0,0,0,0,0,0,0,0,0,0,0,0,0,0,0,0,0,0,0,0,0,0,0,0,0,0,0,0,0,0,0,0,0,0,0,0,0,0,0,0],"sum_hessian":[2.84E2,1.42E2,1.42E2,7.9E1,6.3E1,1.32E2,1E1,2.8E1,5.1E1,3.9E1,2.4E1,4.4E1,8.8E1,2.7E1,1E0,3.3E1,1.8E1,3.3E1,6E0,1.8E1,6E0,4.5E1,4.3E1,2.6E1,7E0,3.2E1,1E0,1E0,5E0,1.6E1,2E0,4E0,2E0,2.6E1,1.9E1,3.5E1,8E0,3E0,2.3E1,1E1,6E0,2E0,2E0,2.3E1,3E0,3E1,5E0],"tree_param":{"num_deleted":"0","num_feature":"7","num_nodes":"47","size_leaf_vector":"1"}},{"base_weights":[-2.8572E-4,-9.0110876E-2,8.954143E-2,-1.4147958E-1,-5.6397703E-2,8.058775E-2,5.6897826E-2,-5.745216E-2,-1.18505895E-1,-7.4741475E-2,-2.782499E-2,1.0315735E-1,7.241563E-2,-6.74783E-3,-3.6103174E-2,-9.524376E-2,-6.2414184E-2,-3.818373E-2,-1.6546978E-2,3.3471912E-2,7.264395E-2,8.5356064E-2,6.004079E-2,-2.9986495E-2,-3.836934E-2,-4.9900413E-3,-6.748334E-2,-1.6054869E-2,-4.1539177E-2,-1.0745341E-2,-1.0695085E-2,7.2777276E-3,2.4512334E-2,7.2495624E-2,4.1696623E-2,1.6012192E-3,6.716398E-2,-1.3887084E-2,-3.3791186E-3,-6.2318565E-3,6.35376E-3,-2.1152228E-2,-1.0934114E-2,-7.0375446E-3,9.233952E-4,-3.98798E-3,-1.3458644E-2,-4.438683E-3,3.6017182E-3,1.7739771E-2,2.7247569E-2,5.7728766E-3,-2.791214E-3,1.4164024E-2,2.346767E-2],"categories":[],"categories_nodes":[],"categories_segments":[],"categories_sizes":[],"default_left":[0,0,0,0,0,0,0,0,0,0,0,0,0,0,0,0,0,0,0,0,0,0,0,0,0,0,0,0,0,0,0,0,0,0,0,0,0,0,0,0,0,0,0,0,0,0,0,0,0,0,0,0,0,0,0],"id":6,"left_children":[1,3,5,7,9,11,-1,-1,13,15,17,19,21,-1,-1,23,25,27,29,-1,31,33,35,-1,37,39,41,43,45,-1,47,-1,-1,49,-1,51,53,-1,-1,-1,-1,-1,-1,-1,-1,-1,-1,-1,-1,-1,-1,-1,-1,-1,-1],"loss_changes":[2.307659E0,2.3966837E-1,1.1290443E-1,4.1667104E-2,4.40439E-2,1.7060459E-2,0E0,0E0,4.5285225E-3,7.450521E-3,3.5739113E-3,3.6901236E-4,1.1048853E-2,0E0,0E0,9.878576E-4,1.014258E-2,6.6963583E-4,1.7595701E-3,0E0,2.4033673E-3,2.2341669E-2,2.278763E-2,0E0,1.2270454E-4,2.0920492E-3,5.274564E-4,6.388138E-4,8.115396E-4,0E0,1.6669958E-3,0E0,0E0,4.426867E-3,0E0,1.5257493E-3,7.1202666E-3,0E0,0E0,0E0,0E0,0E0,0E0,0E0,0E0,0E0,0E0,0E0,0E0,0E0,0E0,0E0,0E0,0E0,0E0],"parents":[2147483647,0,0,1,1,2,2,3,3,4,4,5,5,8,8,9,9,10,10,11,11,12,12,15,15,16,16,17,17,18,18,20,20,21,21,22,22,24,24,25,25,26,26,27,27,28,28,30,30,33,33,35,35,36,36],"right_children":[2,4,6,8,10,12,-1,-1,14,16,18,20,22,-1,-1,24,26,28,30,-1,32,34,36,-1,38,40,42,44,46,-1,48,-1,-1,50,-1,52,54,-1,-1,-1,-1,-1,-1,-1,-1,-1,-1,-1,-1,-1,-1,-1,-1,-1,-1],"split_conditions":[7.1486263E0,7.405984E0,7.3793955E0,6.9847717E0,9.595505E1,1.3548349E1,5.6897826E-2,-5.745216E-2,6.9856153E0,8.397904E0,7.118407E0,2.1E1,7.2296705E0,-6.74783E-3,-3.6103174E-2,7.079945E0,7E0,8.195956E0,8.258035E0,3.3471912E-2,2.3E1,7.2173076E0,7.240659E0,-2.9986495E-2,1.1459489E1,7.070356E0,1.8633686E1,2.009761E1,9.697374E1,-1.0745341E-2,1.693197E2,7.2777276E-3,2.4512334E-2,9.073785E0,4.1696623E-2,2.1902945E1,7.2736263E0,-1.3887084E-2,-3.3791186E-3,-6.2318565E-3,6.35376E-3,-2.1152228E-2,-1.0934114E-2,-7.0375446E-3,9.233952E-4,-3.98798E-3,-1.3458644E-2,-4.438683E-3,3.6017182E-3,1.7739771E-2,2.7247569E-2,5.7728766E-3,-2.791214E-3,1.4164024E-2,2.346767E-2],"split_indices":[2,0,2,2,1,0,0,0,2,3,2,6,2,0,0,2,6,3,3,0,6,2,2,0,0,2,0,0,1,0,1,0,0,3,0,0,2,0,0,0,0,0,0,0,0,0,0,0,0,0,0,0,0,0,0],"split_type":[0,0,0,0,0,0,0,0,0,0,0,0,0,0,0,0,0,0,0,0,0,0,0,0,0,0,0,0,0,0,0,0,0,0,0,0,0,0,0,0,0,0,0,0,0,0,0,0,0,0,0,0,0,0,0],"sum_hessian":[2.84E2,1.42E2,1.42E2,5.5E1,8.7E1,1.32E2,1E1,1.5E1,4E1,5.2E1,3.5E1,3.2E1,1E2,1E0,3.9E1,1.7E1,3.5E1,1.7E1,1.8E1,2.3E1,9E0,4.6E1,5.4E1,1.5E1,2E0,3E0,3.2E1,3E0,1.4E1,3E0,1.5E1,2E0,7E0,3.9E1,7E0,6E0,4.8E1,1E0,1E0,2E0,1E0,2.8E1,4E0,2E0,1E0,2E0,1.2E1,1.3E1,2E0,2.5E1,1.4E1,2E0,4E0,1.9E1,2.9E1],"tree_param":{"num_deleted":"0","num_feature":"7","num_nodes":"55","size_leaf_vector":"1"}},{"base_weights":[-7.791101E-5,-6.4578734E-2,6.442346E-2,-1.0900935E-1,-4.3730687E-2,5.8654133E-2,4.63347E-2,-4.093247E-2,-7.412832E-2,-7.230647E-2,-3.201051E-2,7.582995E-2,5.1951323E-2,-7.8546084E-2,-5.990148E-3,-6.1341766E-3,-7.5509205E-2,-3.977337E-2,-1.4827569E-2,2.3823306E-2,1.1323557E-2,4.6366908E-2,7.101733E-2,-8.3840884E-2,-6.17857E-3,-1.2656201E-2,-2.4430223E-2,2.6565315E-3,-4.0970948E-2,-1.8704526E-2,-4.735589E-3,3.8037762E-2,5.6761973E-2,9.743825E-2,3.221049E-2,-7.158065E-3,-2.5789687E-2,-1.3877154E-2,-8.877214E-3,-3.9901068E-3,-1.1847163E-2,2.5445223E-4,-4.297376E-3,1.5667425E-2,7.2074234E-3,1.9941134E-2,1.3331827E-2,3.3145554E-2,1.31169325E-2,-6.8459273E-3,1.2258149E-2],"categories":[],"categories_nodes":[],"categories_segments":[],"categories_sizes":[],"default_left":[0,0,0,0,0,0,0,0,0,0,0,0,0,0,0,0,0,0,0,0,0,0,0,0,0,0,0,0,0,0,0,0,0,0,0,0,0,0,0,0,0,0,0,0,0,0,0,0,0,0,0],"id":7,"left_children":[1,3,5,7,9,11,-1,-1,13,15,17,19,21,23,-1,-1,25,27,29,-1,-1,31,33,35,-1,-1,-1,-1,37,39,41,43,45,47,49,-1,-1,-1,-1,-1,-1,-1,-1,-1,-1,-1,-1,-1,-1,-1,-1],"loss_changes":[1.1898718E0,1.2769258E-1,6.5213144E-2,3.294468E-2,3.0841842E-2,1.1717677E-2,0E0,0E0,3.695622E-3,3.106609E-3,9.014241E-3,1.9124448E-3,7.460892E-3,4.410036E-3,0E0,0E0,1.6976297E-3,3.2163784E-3,8.5045164E-4,0E0,0E0,4.8540384E-3,1.8393017E-2,2.4279952E-4,0E0,0E0,0E0,0E0,1.5188381E-3,1.3843919E-3,4.404912E-4,8.28784E-3,1.1136159E-3,3.5790578E-3,5.6925435E-3,0E0,0E0,0E0,0E0,0E0,0E0,0E0,0E0,0E0,0E0,0E0,0E0,0E0,0E0,0E0,0E0],"parents":[2147483647,0,0,1,1,2,2,3,3,4,4,5,5,8,8,9,9,10,10,11,11,12,12,13,13,16,16,17,17,18,18,21,21,22,22,23,23,28,28,29,29,30,30,31,31,32,32,33,33,34,34],"right_children":[2,4,6,8,10,12,-1,-1,14,16,18,20,22,24,-1,-1,26,28,30,-1,-1,32,34,36,-1,-1,-1,-1,38,40,42,44,46,48,50,-1,-1,-1,-1,-1,-1,-1,-1,-1,-1,-1,-1,-1,-1,-1,-1],"split_conditions":[7.1486263E0,3E0,7.3903847E0,1.6E1,4.509451E1,1.3548349E1,4.63347E-2,-4.093247E-2,3.798849E1,7.0184455E0,7.1115384E0,9.843692E0,2.4890932E1,8.753145E0,-5.990148E-3,-6.1341766E-3,3.1426052E1,4.0903397E0,1.4065526E2,2.3823306E-2,1.1323557E-2,9.150011E0,2.5749561E1,7.8441763E0,-6.17857E-3,-1.2656201E-2,-2.4430223E-2,2.6565315E-3,7.082692E0,8.872755E0,2.2956436E1,8.785124E0,2.0004124E1,9.207759E0,2.5815557E1,-7.158065E-3,-2.5789687E-2,-1.3877154E-2,-8.877214E-3,-3.9901068E-3,-1.1847163E-2,2.5445223E-4,-4.297376E-3,1.5667425E-2,7.2074234E-3,1.9941134E-2,1.3331827E-2,3.3145554E-2,1.31169325E-2,-6.8459273E-3,1.2258149E-2],"split_indices":[2,5,2,6,1,0,0,0,1,2,2,3,0,3,0,0,1,0,1,0,0,3,0,3,0,0,0,0,2,3,0,3,0,3,0,0,0,0,0,0,0,0,0,0,0,0,0,0,0,0,0],"split_type":[0,0,0,0,0,0,0,0,0,0,0,0,0,0,0,0,0,0,0,0,0,0,0,0,0,0,0,0,0,0,0,0,0,0,0,0,0,0,0,0,0,0,0,0,0,0,0,0,0,0,0],"sum_hessian":[2.84E2,1.42E2,1.42E2,4.4E1,9.8E1,1.35E2,7E0,2.3E1,2.1E1,2.7E1,7.1E1,3.5E1,1E2,1.9E1,2E0,2E0,2.5E1,4.8E1,2.3E1,3.1E1,4E0,8E1,2E1,1.7E1,2E0,5E0,2E1,1E0,4.7E1,1.6E1,7E0,4.7E1,3.3E1,1.1E1,9E0,1E0,1.6E1,3E1,1.7E1,1.4E1,2E0,5E0,2E0,2.2E1,2.5E1,1.6E1,1.7E1,8E0,3E0,1E0,8E0],"tree_param":{"num_deleted":"0","num_feature":"7","num_nodes":"51","size_leaf_vector":"1"}},{"base_weights":[1.5854417E-5,-4.6388634E-2,4.642023E-2,-7.821874E-2,-3.145183E-2,8.7089874E-2,3.9486255E-2,-9.721466E-2,-5.3940523E-2,-5.2158076E-2,-2.296257E-2,1.9664578E-2,3.531931E-2,1.7129963E-2,4.129707E-2,-3.1275224E-2,-5.8731277E-2,-6.955016E-2,-3.7783843E-2,-2.7869433E-2,-5.892717E-2,-2.9837564E-2,-1.2907336E-2,2.2722315E-2,-5.8190348E-3,3.764686E-2,5.991021E-2,-3.793359E-3,-6.541972E-2,-2.2114746E-2,-4.808879E-3,6.0113315E-3,-4.4272125E-2,-3.152414E-2,-3.3810618E-3,-4.9304366E-3,-6.0230054E-2,-2.8133392E-3,-3.1844214E-2,-3.817422E-4,-1.5898209E-2,1.51563035E-2,9.084678E-3,4.751036E-2,2.9400839E-2,7.6338254E-2,1.7069101E-2,-4.541767E-3,-2.2261513E-2,-1.5065075E-3,-1.421515E-2,-1.024694E-2,-2.7543784E-3,-1.849752E-2,-4.963732E-3,1.5868664E-3,-4.0683034E-3,-1.4289471E-2,-8.259121E-3,-4.5965556E-3,1.3985754E-3,-1.0313398E-2,-3.5446808E-3,-3.5424114E-3,6.48551E-3,5.4157735E-3,1.5539817E-2,4.6128947E-3,1.0247019E-2,1.2586581E-2,3.1118607E-2,6.188064E-3,-1.07967855E-4],"categories":[],"categories_nodes":[],"categories_segments":[],"categories_sizes":[],"default_left":[0,0,0,0,0,0,0,0,0,0,0,0,0,0,0,0,0,0,0,0,0,0,0,0,0,0,0,0,0,0,0,0,0,0,0,0,0,0,0,0,0,0,0,0,0,0,0,0,0,0,0,0,0,0,0,0,0,0,0,0,0,0,0,0,0,0,0,0,0,0,0,0,0],"id":8,"left_children":[1,3,5,7,9,11,13,15,17,19,21,-1,-1,23,25,-1,27,29,31,33,35,37,39,41,-1,43,45,-1,47,-1,-1,-1,49,51,-1,-1,53,55,57,59,61,63,-1,65,67,69,71,-1,-1,-1,-1,-1,-1,-1,-1,-1,-1,-1,-1,-1,-1,-1,-1,-1,-1,-1,-1,-1,-1,-1,-1,-1,-1],"loss_changes":[6.158642E-1,6.552783E-2,3.6887497E-2,1.5509576E-2,1.6204596E-2,5.4838955E-3,4.3124706E-3,3.7576258E-4,2.9205233E-3,2.9612705E-3,4.592214E-3,0E0,0E0,2.6877148E-3,5.4899454E-3,0E0,1.0222886E-3,1.0478497E-3,5.764233E-3,1.3003871E-4,1.7274171E-4,2.1879934E-3,1.1552675E-3,1.13019254E-4,0E0,6.57396E-3,1.0661494E-2,0E0,1.0852441E-3,0E0,0E0,0E0,1.2276806E-3,3.9283186E-5,0E0,0E0,2.277419E-4,4.2008067E-4,1.3447255E-3,5.98899E-4,1.4799451E-3,1.4749876E-3,0E0,4.4977367E-3,3.2099448E-3,6.949216E-3,3.7947425E-4,0E0,0E0,0E0,0E0,0E0,0E0,0E0,0E0,0E0,0E0,0E0,0E0,0E0,0E0,0E0,0E0,0E0,0E0,0E0,0E0,0E0,0E0,0E0,0E0,0E0,0E0],"parents":[2147483647,0,0,1,1,2,2,3,3,4,4,5,5,6,6,7,7,8,8,9,9,10,10,13,13,14,14,16,16,17,17,18,18,19,19,20,20,21,21,22,22,23,23,25,25,26,26,28,28,32,32,33,33,36,36,37,37,38,38,39,39,40,40,41,41,43,43,44,44,45,45,46,46],"right_children":[2,4,6,8,10,12,14,16,18,20,22,-1,-1,24,26,-1,28,30,32,34,36,38,40,42,-1,44,46,-1,48,-1,-1,-1,50,52,-1,-1,54,56,58,60,62,64,-1,66,68,70,72,-1,-1,-1,-1,-1,-1,-1,-1,-1,-1,-1,-1,-1,-1,-1,-1,-1,-1,-1,-1,-1,-1,-1,-1,-1,-1],"split_conditions":[7.1486263E0,3E0,7.3056946E0,1.6E1,4.509451E1,7.3917584E0,3E0,8.593011E0,6.9986353E0,7.0346155E0,1.8411852E1,1.9664578E-2,3.531931E-2,2.5656057E1,2.5020683E1,-3.1275224E-2,8.669838E0,8.347893E0,1.8E1,7.030108E0,2.9212263E0,4.653493E1,1.8776443E1,9.279582E0,-5.8190348E-3,1.8115877E1,2.6569727E1,-3.793359E-3,1.3801475E0,-2.2114746E-2,-4.808879E-3,6.0113315E-3,7.824138E0,3.968504E1,-3.3810618E-3,-4.9304366E-3,1.3191979E1,7.049725E0,8.185168E0,8.604378E0,9.614677E1,1.7451221E1,9.084678E-3,5.8094536E1,2.1328428E1,2E1,2.7E1,-4.541767E-3,-2.2261513E-2,-1.5065075E-3,-1.421515E-2,-1.024694E-2,-2.7543784E-3,-1.849752E-2,-4.963732E-3,1.5868664E-3,-4.0683034E-3,-1.4289471E-2,-8.259121E-3,-4.5965556E-3,1.3985754E-3,-1.0313398E-2,-3.5446808E-3,-3.5424114E-3,6.48551E-3,5.4157735E-3,1.5539817E-2,4.6128947E-3,1.0247019E-2,1.2586581E-2,3.1118607E-2,6.188064E-3,-1.07967855E-4],"split_indices":[2,5,0,6,1,2,6,3,2,2,0,0,0,0,0,0,3,3,6,2,0,1,0,3,0,0,0,0,0,0,0,0,3,1,0,0,0,2,3,3,1,0,0,1,0,6,6,0,0,0,0,0,0,0,0,0,0,0,0,0,0,0,0,0,0,0,0,0,0,0,0,0,0],"split_type":[0,0,0,0,0,0,0,0,0,0,0,0,0,0,0,0,0,0,0,0,0,0,0,0,0,0,0,0,0,0,0,0,0,0,0,0,0,0,0,0,0,0,0,0,0,0,0,0,0,0,0,0,0,0,0,0,0,0,0,0,0,0,0,0,0,0,0,0,0,0,0,0,0],"sum_hessian":[2.84E2,1.42E2,1.42E2,4.4E1,9.8E1,1.9E1,1.23E2,2.3E1,2.1E1,2.7E1,7.1E1,1.3E1,6E0,1E1,1.13E2,1.8E1,5E0,9E0,1.2E1,7E0,2E1,4.1E1,3E1,9E0,1E0,9.7E1,1.6E1,1E0,4E0,8E0,1E0,1E0,1.1E1,5E0,2E0,1E0,1.9E1,3E0,3.8E1,6E0,2.4E1,6E0,3E0,4.2E1,5.5E1,1.1E1,5E0,1E0,3E0,1E0,1E1,4E0,1E0,1.8E1,1E0,2E0,1E0,6E0,3.2E1,1E0,5E0,3E0,2.1E1,1E0,5E0,6E0,3.6E1,1.5E1,4E1,6E0,5E0,4E0,1E0],"tree_param":{"num_deleted":"0","num_feature":"7","num_nodes":"73","size_leaf_vector":"1"}},{"base_weights":[-1.2425205E-4,-3.4521043E-2,3.2859825E-2,-5.3830635E-2,-2.1393303E-2,2.923678E-2,7.9209566E-2,-7.602684E-2,-4.385576E-2,-2.9740136E-2,-1.3670113E-2,1.3677856E-2,3.209433E-2,2.5051579E-2,6.082249E-3,-7.930994E-2,-4.017055E-3,-4.7770343E-3,-4.5737308E-2,-4.7008388E-2,-2.0660589E-2,8.721113E-3,-1.526591E-2,2.9446308E-2,-6.201029E-3,2.7409302E-2,4.5672484E-2,-3.95133E-2,-2.70568E-2,2.4541498E-3,-4.6038153E-3,-5.5009626E-2,-3.3081733E-2,-3.196351E-2,-1.9406248E-2,-2.5474917E-2,-2.5783267E-3,-2.1505276E-2,-9.414205E-3,1.6407728E-2,3.5544455E-2,-2.0410435E-2,1.49323465E-2,3.017438E-3,3.3638388E-2,1.8770287E-2,2.1365203E-2,-1.4382399E-2,-8.7018014E-4,2.0200254E-3,-1.7530035E-2,5.109644E-3,-1.104362E-2,-4.093886E-3,-1.057426E-2,-2.0984602E-3,-8.757898E-3,1.6257048E-3,-4.5143366E-3,-7.2280173E-3,6.163597E-4,-1.8349785E-3,-6.414399E-3,1.2683631E-3,5.399437E-3,1.2394107E-2,3.6473514E-3,-7.1352366E-3,-2.5248528E-5,5.4168226E-3,2.0493509E-3,-1.441774E-3,5.1346375E-3,1.1205916E-2,5.9580426E-3,8.962974E-3,-5.089474E-3],"categories":[],"categories_nodes":[],"categories_segments":[],"categories_sizes":[],"default_left":[0,0,0,0,0,0,0,0,0,0,0,0,0,0,0,0,0,0,0,0,0,0,0,0,0,0,0,0,0,0,0,0,0,0,0,0,0,0,0,0,0,0,0,0,0,0,0,0,0,0,0,0,0,0,0,0,0,0,0,0,0,0,0,0,0,0,0,0,0,0,0,0,0,0,0,0,0],"id":9,"left_children":[1,3,5,7,9,11,13,15,17,19,21,23,25,-1,-1,27,-1,29,31,33,35,-1,37,39,41,43,45,47,-1,-1,-1,49,51,53,-1,55,57,59,61,63,65,67,69,71,73,-1,75,-1,-1,-1,-1,-1,-1,-1,-1,-1,-1,-1,-1,-1,-1,-1,-1,-1,-1,-1,-1,-1,-1,-1,-1,-1,-1,-1,-1,-1,-1],"loss_changes":[3.244801E-1,3.4337163E-2,2.2201553E-2,9.064436E-3,5.0729066E-3,5.6520924E-3,8.3868206E-4,2.2283047E-3,2.7961954E-3,5.3002983E-3,3.581223E-3,7.3921606E-3,6.0637593E-3,0E0,0E0,2.9307678E-3,0E0,5.363834E-4,2.7566925E-3,1.3900995E-3,2.3718271E-3,0E0,1.4405362E-3,4.504416E-4,3.6079956E-3,1.3269134E-2,1.0162126E-2,1.4038058E-3,0E0,0E0,0E0,4.8327968E-3,4.178876E-3,6.038975E-5,0E0,1.3074242E-3,7.796021E-4,1.3299845E-3,8.557921E-4,4.0130806E-5,5.770968E-4,4.7801947E-4,3.185356E-6,2.1778368E-3,2.8408766E-3,0E0,4.748E-3,0E0,0E0,0E0,0E0,0E0,0E0,0E0,0E0,0E0,0E0,0E0,0E0,0E0,0E0,0E0,0E0,0E0,0E0,0E0,0E0,0E0,0E0,0E0,0E0,0E0,0E0,0E0,0E0,0E0,0E0],"parents":[2147483647,0,0,1,1,2,2,3,3,4,4,5,5,6,6,7,7,8,8,9,9,10,10,11,11,12,12,15,15,17,17,18,18,19,19,20,20,22,22,23,23,24,24,25,25,26,26,27,27,31,31,32,32,33,33,35,35,36,36,37,37,38,38,39,39,40,40,41,41,42,42,43,43,44,44,46,46],"right_children":[2,4,6,8,10,12,14,16,18,20,22,24,26,-1,-1,28,-1,30,32,34,36,-1,38,40,42,44,46,48,-1,-1,-1,50,52,54,-1,56,58,60,62,64,66,68,70,72,74,-1,76,-1,-1,-1,-1,-1,-1,-1,-1,-1,-1,-1,-1,-1,-1,-1,-1,-1,-1,-1,-1,-1,-1,-1,-1,-1,-1,-1,-1,-1,-1],"split_conditions":[7.1431317E0,7.405984E0,7.3807693E0,6.9847717E0,7.0717034E0,7.182967E0,3.947601E1,4.0903397E0,2E0,8.390337E0,7.0730767E0,2.3425587E1,2.2459842E2,2.5051579E-2,6.082249E-3,6.9483857E0,-4.017055E-3,-6.018307E-1,1.7E1,7.0524726E0,7.062088E0,8.721113E-3,1.0724688E2,7.152747E0,2.4575956E1,7.264011E0,2.6959198E2,1.1096348E0,-2.70568E-2,2.4541498E-3,-4.6038153E-3,6.990753E0,1.8E1,9.510003E0,-1.9406248E-2,1.0545674E1,7.068956E0,8.927818E0,2.109288E1,1.8525772E1,2.263253E1,7.1815934E0,2.5280237E1,9.227211E0,2.5E1,1.8770287E-2,7.202198E0,-1.4382399E-2,-8.7018014E-4,2.0200254E-3,-1.7530035E-2,5.109644E-3,-1.104362E-2,-4.093886E-3,-1.057426E-2,-2.0984602E-3,-8.757898E-3,1.6257048E-3,-4.5143366E-3,-7.2280173E-3,6.163597E-4,-1.8349785E-3,-6.414399E-3,1.2683631E-3,5.399437E-3,1.2394107E-2,3.6473514E-3,-7.1352366E-3,-2.5248528E-5,5.4168226E-3,2.0493509E-3,-1.441774E-3,5.1346375E-3,1.1205916E-2,5.9580426E-3,8.962974E-3,-5.089474E-3],"split_indices":[2,0,2,2,2,2,1,0,6,3,2,0,1,0,0,2,0,0,6,2,2,0,1,2,0,2,1,0,0,0,0,2,6,0,0,0,2,3,0,0,0,2,0,3,6,0,2,0,0,0,0,0,0,0,0,0,0,0,0,0,0,0,0,0,0,0,0,0,0,0,0,0,0,0,0,0,0],"split_type":[0,0,0,0,0,0,0,0,0,0,0,0,0,0,0,0,0,0,0,0,0,0,0,0,0,0,0,0,0,0,0,0,0,0,0,0,0,0,0,0,0,0,0,0,0,0,0,0,0,0,0,0,0,0,0,0,0,0,0,0,0,0,0,0,0,0,0,0,0,0,0,0,0,0,0,0,0],"sum_hessian":[2.84E2,1.39E2,1.45E2,5.5E1,8.4E1,1.36E2,9E0,1.5E1,4E1,3.9E1,4.5E1,2.2E1,1.14E2,8E0,1E0,1.4E1,1E0,2E0,3.8E1,1.2E1,2.7E1,1E0,4.4E1,1.2E1,1E1,8.7E1,2.7E1,4E0,1E1,1E0,1E0,2E1,1.8E1,8E0,4E0,2.1E1,6E0,2E1,2.4E1,5E0,7E0,6E0,4E0,1.8E1,6.9E1,1.5E1,1.2E1,3E0,1E0,1E0,1.9E1,1E0,1.7E1,2E0,6E0,4E0,1.7E1,4E0,2E0,1.8E1,2E0,2E1,4E0,1E0,4E0,5E0,2E0,5E0,1E0,2E0,2E0,1.2E1,6E0,5.3E1,1.6E1,1E1,2E0],"tree_param":{"num_deleted":"0","num_feature":"7","num_nodes":"77","size_leaf_vector":"1"}},{"base_weights":[-1.7906909E-4,-2.5765412E-2,2.3020409E-2,-5.095832E-2,-1.9911947E-2,2.1020103E-2,2.3047572E-2,-6.234365E-2,-3.3428907E-2,-2.6874436E-2,-1.2722274E-2,5.8065294E-3,2.3250429E-2,-3.0709838E-2,-2.1577857E-2,-3.7816923E-2,-4.5595947E-3,-3.7264448E-2,-2.0972207E-2,-1.5159337E-2,-3.3076543E-3,1.2701178E-2,-1.2397845E-2,3.191222E-2,2.0242535E-2,-1.3154555E-2,-2.2003653E-3,-1.2155459E-2,-2.4310113E-3,-5.3589582E-2,-2.3275653E-2,-1.0631481E-3,-2.3956515E-2,-1.1010558E-2,-2.6981873E-2,2.8312446E-3,-6.482905E-3,2.0553231E-2,3.2614768E-3,3.1303565E-3,-6.283361E-3,3.5026234E-2,8.714104E-3,1.4626261E-2,2.9773466E-2,-4.961324E-3,-1.8955171E-2,2.5353672E-3,-9.139845E-3,4.3432117E-3,-2.120018E-3,-8.330589E-3,-1.7490864E-3,-4.113109E-3,6.7072394E-3,-9.030009E-3,-2.5900365E-3,-4.9309256E-3,-7.334233E-4,6.585319E-3,1.6152621E-3,-6.262064E-4,2.0664742E-3,-2.0359755E-4,1.612258E-3,1.1490609E-2,3.8856985E-3,3.806913E-3,-1.078248E-3,-2.5184564E-3,5.159044E-3,1.3491163E-2,4.83814E-3],"categories":[],"categories_nodes":[],"categories_segments":[],"categories_sizes":[],"default_left":[0,0,0,0,0,0,0,0,0,0,0,0,0,0,0,0,0,0,0,0,0,0,0,0,0,0,0,0,0,0,0,0,0,0,0,0,0,0,0,0,0,0,0,0,0,0,0,0,0,0,0,0,0,0,0,0,0,0,0,0,0,0,0,0,0,0,0,0,0,0,0,0,0],"id":10,"left_children":[1,3,5,7,9,11,-1,13,15,17,19,21,23,25,-1,27,-1,29,31,33,35,37,39,41,43,-1,-1,-1,-1,45,47,49,51,53,55,-1,57,59,61,63,-1,65,67,69,71,-1,-1,-1,-1,-1,-1,-1,-1,-1,-1,-1,-1,-1,-1,-1,-1,-1,-1,-1,-1,-1,-1,-1,-1,-1,-1,-1,-1],"loss_changes":[1.6976623E-1,1.9040667E-2,1.45290345E-2,2.9053688E-3,5.264595E-3,4.818961E-3,0E0,2.035018E-3,3.8516894E-4,2.652634E-3,1.2576664E-3,2.6677223E-3,2.6628375E-3,1.213993E-3,0E0,3.940463E-4,0E0,3.09168E-3,2.2322908E-3,1.910124E-3,5.872792E-4,1.0447816E-3,8.6185226E-4,1.9341931E-3,4.7567748E-3,0E0,0E0,0E0,0E0,1.7989799E-3,2.9950612E-3,6.621E-4,2.118377E-3,3.4595774E-3,3.6947802E-4,0E0,4.019499E-4,5.1440904E-5,1.6957006E-4,2.9287663E-5,0E0,1.456257E-3,2.9027287E-4,3.8725147E-3,6.5332092E-3,0E0,0E0,0E0,0E0,0E0,0E0,0E0,0E0,0E0,0E0,0E0,0E0,0E0,0E0,0E0,0E0,0E0,0E0,0E0,0E0,0E0,0E0,0E0,0E0,0E0,0E0,0E0,0E0],"parents":[2147483647,0,0,1,1,2,2,3,3,4,4,5,5,7,7,8,8,9,9,10,10,11,11,12,12,13,13,15,15,17,17,18,18,19,19,20,20,21,21,22,22,23,23,24,24,29,29,30,30,31,31,32,32,33,33,34,34,36,36,37,37,38,38,39,39,41,41,42,42,43,43,44,44],"right_children":[2,4,6,8,10,12,-1,14,16,18,20,22,24,26,-1,28,-1,30,32,34,36,38,40,42,44,-1,-1,-1,-1,46,48,50,52,54,56,-1,58,60,62,64,-1,66,68,70,72,-1,-1,-1,-1,-1,-1,-1,-1,-1,-1,-1,-1,-1,-1,-1,-1,-1,-1,-1,-1,-1,-1,-1,-1,-1,-1,-1,-1],"split_conditions":[7.136264E0,2E0,7.3945055E0,1.8E1,1.2288993E1,7.1664834E0,2.3047572E-2,6.9483857E0,2.8E1,9E0,2.3E1,2.3425587E1,7.032492E1,3.9657828E-1,-2.1577857E-2,8.753145E0,-4.5595947E-3,8.130961E0,3.8235703E0,1.8E1,2.5E1,1.2E1,9E0,9.831105E0,2.2459842E2,-1.3154555E-2,-2.2003653E-3,-1.2155459E-2,-2.4310113E-3,7.834732E0,7.001383E0,7.0138464E0,8.691932E0,7.128022E0,8.780943E0,2.8312446E-3,7.0593405E0,2.4693797E2,1.6210683E2,2.3434025E1,-6.283361E-3,2.6E1,8.566663E0,7.240659E0,2.6959198E2,-4.961324E-3,-1.8955171E-2,2.5353672E-3,-9.139845E-3,4.3432117E-3,-2.120018E-3,-8.330589E-3,-1.7490864E-3,-4.113109E-3,6.7072394E-3,-9.030009E-3,-2.5900365E-3,-4.9309256E-3,-7.334233E-4,6.585319E-3,1.6152621E-3,-6.262064E-4,2.0664742E-3,-2.0359755E-4,1.612258E-3,1.1490609E-2,3.8856985E-3,3.806913E-3,-1.078248E-3,-2.5184564E-3,5.159044E-3,1.3491163E-2,4.83814E-3],"split_indices":[2,5,2,6,0,2,0,2,6,6,6,0,1,0,0,3,0,3,0,6,6,6,6,3,1,0,0,0,0,3,2,2,3,2,3,0,2,1,1,0,0,6,0,2,1,0,0,0,0,0,0,0,0,0,0,0,0,0,0,0,0,0,0,0,0,0,0,0,0,0,0,0,0],"split_type":[0,0,0,0,0,0,0,0,0,0,0,0,0,0,0,0,0,0,0,0,0,0,0,0,0,0,0,0,0,0,0,0,0,0,0,0,0,0,0,0,0,0,0,0,0,0,0,0,0,0,0,0,0,0,0,0,0,0,0,0,0,0,0,0,0,0,0,0,0,0,0,0,0],"sum_hessian":[2.84E2,1.35E2,1.49E2,2.4E1,1.11E2,1.45E2,4E0,1.3E1,1.1E1,5.5E1,5.6E1,1.9E1,1.26E2,4E0,9E0,8E0,3E0,1.8E1,3.7E1,4.4E1,1.2E1,1.4E1,5E0,3E1,9.6E1,2E0,2E0,7E0,1E0,7E0,1.1E1,5E0,3.2E1,3.4E1,1E1,2E0,1E1,7E0,7E0,2E0,3E0,2.6E1,4E0,6.2E1,3.4E1,2E0,5E0,2E0,9E0,1E0,4E0,2.6E1,6E0,3.2E1,2E0,8E0,2E0,2E0,8E0,6E0,1E0,3E0,4E0,1E0,1E0,2.2E1,4E0,3E0,1E0,6E0,5.6E1,1.5E1,1.9E1],"tree_param":{"num_deleted":"0","num_feature":"7","num_nodes":"73","size_leaf_vector":"1"}},{"base_weights":[-2.6368676E-4,-1.8817501E-2,1.6560197E-2,-3.791398E-2,-1.4386882E-2,3.660078E-2,1.3374152E-2,-4.2336226E-2,-5.0562504E-3,-1.826138E-2,-5.7001244E-3,2.750495E-2,1.7516185E-2,1.1459431E-2,2.4057802E-2,-4.3839406E-2,-2.0663738E-3,-2.5733866E-2,-1.2666143E-2,-3.7473114E-3,-6.1157406E-3,7.6494217E-3,3.1498577E-2,1.3450902E-2,1.5265464E-3,5.411184E-2,9.459087E-3,-4.4975955E-2,-3.507221E-3,-4.073398E-2,-1.0102356E-2,-9.606708E-3,-1.074965E-2,-5.719977E-3,1.7886003E-2,4.0606502E-3,-1.5013219E-3,2.1050693E-3,9.886194E-3,2.009837E-2,8.978363E-3,-1.25007285E-2,8.431145E-3,1.2158633E-3,6.331305E-2,-2.439552E-3,2.573053E-2,-7.3703676E-3,-1.4715595E-2,1.705742E-3,-1.3262306E-2,2.465497E-3,-6.2527726E-3,1.4301538E-3,-3.7853073E-3,-9.33792E-4,-6.7624035E-3,-8.9174515E-4,8.940447E-3,1.4616093E-3,7.239222E-3,-5.1475833E-3,3.6972424E-3,-4.832065E-3,1.37043E-3,-2.136941E-3,4.6095517E-3,2.1661306E-2,4.1621807E-3,1.2985611E-3,-2.615919E-3,9.062091E-3,5.022526E-4],"categories":[],"categories_nodes":[],"categories_segments":[],"categories_sizes":[],"default_left":[0,0,0,0,0,0,0,0,0,0,0,0,0,0,0,0,0,0,0,0,0,0,0,0,0,0,0,0,0,0,0,0,0,0,0,0,0,0,0,0,0,0,0,0,0,0,0,0,0,0,0,0,0,0,0,0,0,0,0,0,0,0,0,0,0,0,0,0,0,0,0,0,0],"id":11,"left_children":[1,3,5,7,9,11,13,15,-1,17,19,21,-1,23,25,27,-1,29,31,33,-1,35,37,39,41,43,45,47,-1,49,51,53,-1,55,57,-1,-1,-1,-1,59,61,63,65,-1,67,69,71,-1,-1,-1,-1,-1,-1,-1,-1,-1,-1,-1,-1,-1,-1,-1,-1,-1,-1,-1,-1,-1,-1,-1,-1,-1,-1],"loss_changes":[8.927357E-2,1.0961395E-2,9.088028E-3,1.6147457E-3,3.6654733E-3,2.357388E-3,2.4040733E-3,7.637404E-4,0E0,2.8934479E-3,9.5602975E-4,1.0277843E-3,0E0,2.2147251E-3,7.824406E-3,1.6843528E-4,0E0,7.091671E-3,2.9160175E-3,1.5105923E-3,0E0,3.6566283E-4,2.3196265E-4,2.614269E-3,2.0424498E-3,2.5070198E-3,2.7732835E-3,2.9220432E-4,0E0,2.8313342E-3,3.5163483E-3,1.8778911E-3,0E0,1.2894651E-3,8.342014E-4,0E0,0E0,0E0,0E0,2.1541677E-3,5.2834786E-3,5.0444773E-4,1.6194012E-3,0E0,1.1961311E-3,4.2028693E-4,5.9554866E-4,0E0,0E0,0E0,0E0,0E0,0E0,0E0,0E0,0E0,0E0,0E0,0E0,0E0,0E0,0E0,0E0,0E0,0E0,0E0,0E0,0E0,0E0,0E0,0E0,0E0,0E0],"parents":[2147483647,0,0,1,1,2,2,3,3,4,4,5,5,6,6,7,7,9,9,10,10,11,11,13,13,14,14,15,15,17,17,18,18,19,19,21,21,22,22,23,23,24,24,25,25,26,26,27,27,29,29,30,30,31,31,33,33,34,34,39,39,40,40,41,41,42,42,44,44,45,45,46,46],"right_children":[2,4,6,8,10,12,14,16,-1,18,20,22,-1,24,26,28,-1,30,32,34,-1,36,38,40,42,44,46,48,-1,50,52,54,-1,56,58,-1,-1,-1,-1,60,62,64,66,-1,68,70,72,-1,-1,-1,-1,-1,-1,-1,-1,-1,-1,-1,-1,-1,-1,-1,-1,-1,-1,-1,-1,-1,-1,-1,-1,-1,-1],"split_conditions":[7.136264E0,2E0,7.3056946E0,2.5E1,7.082692E0,7.3945055E0,2.5020683E1,8.593011E0,-5.0562504E-3,8.390337E0,7.1307693E0,4.459226E0,1.7516185E-2,2.356281E1,2.5562891E1,7.007889E0,-2.0663738E-3,1.2E1,8.804931E0,7.128022E0,-6.1157406E-3,4.070419E0,3.1295597E1,1.2E1,7.182967E0,8.689479E0,2E1,6.9483857E0,-3.507221E-3,-6.018307E-1,1.8E1,7E0,-1.074965E-2,2.0909388E1,1.8572994E1,4.0606502E-3,-1.5013219E-3,2.1050693E-3,9.886194E-3,3E0,1.4E1,2.4575956E1,1.1E1,1.2158633E-3,2.797954E2,7.2008243E0,2.6804205E1,-7.3703676E-3,-1.4715595E-2,1.705742E-3,-1.3262306E-2,2.465497E-3,-6.2527726E-3,1.4301538E-3,-3.7853073E-3,-9.33792E-4,-6.7624035E-3,-8.9174515E-4,8.940447E-3,1.4616093E-3,7.239222E-3,-5.1475833E-3,3.6972424E-3,-4.832065E-3,1.37043E-3,-2.136941E-3,4.6095517E-3,2.1661306E-2,4.1621807E-3,1.2985611E-3,-2.615919E-3,9.062091E-3,5.022526E-4],"split_indices":[2,5,0,6,2,2,0,3,0,3,2,0,0,0,0,2,0,6,3,2,0,0,1,6,2,3,6,2,0,0,6,6,0,0,0,0,0,0,0,6,6,0,6,0,1,2,0,0,0,0,0,0,0,0,0,0,0,0,0,0,0,0,0,0,0,0,0,0,0,0,0,0,0],"split_type":[0,0,0,0,0,0,0,0,0,0,0,0,0,0,0,0,0,0,0,0,0,0,0,0,0,0,0,0,0,0,0,0,0,0,0,0,0,0,0,0,0,0,0,0,0,0,0,0,0,0,0,0,0,0,0,0,0,0,0,0,0,0,0,0,0,0,0,0,0,0,0,0,0],"sum_hessian":[2.84E2,1.35E2,1.49E2,2.4E1,1.11E2,1.9E1,1.3E2,1.9E1,5E0,7.6E1,3.5E1,1.5E1,4E0,1.12E2,1.8E1,1.8E1,1E0,3.1E1,4.5E1,3.2E1,3E0,3E0,1.2E1,9.3E1,1.9E1,5E0,1.3E1,1.7E1,1E0,1.5E1,1.6E1,4.1E1,4E0,3E1,2E0,2E0,1E0,1E0,1.1E1,3.6E1,5.7E1,6E0,1.3E1,1E0,4E0,8E0,5E0,4E0,1.3E1,1E0,1.4E1,6E0,1E1,7E0,3.4E1,2.7E1,3E0,1E0,1E0,8E0,2.8E1,6E0,5.1E1,5E0,1E0,4E0,9E0,3E0,1E0,4E0,4E0,4E0,1E0],"tree_param":{"num_deleted":"0","num_feature":"7","num_nodes":"73","size_leaf_vector":"1"}},{"base_weights":[-1.6111575E-4,-1.3401243E-2,1.25359995E-2,-2.4129612E-2,-8.714447E-3,1.0427258E-2,3.0257193E-2,-2.7166517E-2,3.7767887E-3,-1.9994516E-2,-6.9287536E-3,8.957401E-3,1.86976E-2,2.1089641E-2,1.3312311E-2,-2.3606328E-2,-1.54579645E-2,-1.1917591E-3,6.707251E-3,-2.573445E-2,-5.663729E-3,1.0461855E-2,-7.892902E-3,1.053434E-2,1.0190725E-3,4.2384863E-2,7.210374E-3,1.7549992E-3,2.3826228E-2,-3.2931823E-2,-1.6598908E-2,-5.0318242E-5,2.716446E-3,-1.5292236E-2,-1.2456442E-2,1.7694712E-3,-1.00287795E-2,-1.9442798E-3,7.175207E-3,-9.423655E-3,-8.9389086E-4,8.603472E-3,2.2051848E-2,-1.0761023E-2,5.6631723E-3,1.0334731E-3,4.9483873E-2,-1.8540488E-3,1.9605279E-2,2.8214058E-2,3.3863785E-3,-1.1984232E-2,-3.6942675E-3,-1.5350283E-4,-7.2216513E-3,-5.2591325E-3,-1.9393445E-3,-3.5817386E-3,-6.4466003E-4,-6.9250166E-4,-3.4181615E-3,2.2239767E-3,-3.0383081E-3,3.0342361E-3,-5.0956397E-3,1.7989909E-3,1.0487039E-2,-4.3399143E-3,1.1648656E-3,-1.624117E-3,3.0549874E-3,1.6787518E-2,3.5378695E-3,2.779305E-3,-1.3205678E-3,7.731021E-3,1.4551402E-3,9.374256E-3,1.9570114E-3],"categories":[],"categories_nodes":[],"categories_segments":[],"categories_sizes":[],"default_left":[0,0,0,0,0,0,0,0,0,0,0,0,0,0,0,0,0,0,0,0,0,0,0,0,0,0,0,0,0,0,0,0,0,0,0,0,0,0,0,0,0,0,0,0,0,0,0,0,0,0,0,0,0,0,0,0,0,0,0,0,0,0,0,0,0,0,0,0,0,0,0,0,0,0,0,0,0,0,0],"id":12,"left_children":[1,3,5,7,9,11,13,15,17,19,21,23,25,27,-1,29,-1,-1,31,33,35,37,39,41,43,45,47,-1,49,51,53,-1,-1,55,-1,-1,57,-1,-1,59,61,63,65,67,69,-1,71,73,75,77,-1,-1,-1,-1,-1,-1,-1,-1,-1,-1,-1,-1,-1,-1,-1,-1,-1,-1,-1,-1,-1,-1,-1,-1,-1,-1,-1,-1,-1],"loss_changes":[4.807975E-2,6.8291593E-3,5.140435E-3,3.6620647E-3,1.8555946E-3,1.4371397E-3,1.0054605E-3,2.0792484E-3,1.401902E-4,9.2359865E-4,1.5413142E-3,1.4163461E-3,4.864307E-3,3.1936774E-4,0E0,1.7405357E-3,0E0,0E0,6.607667E-5,8.487073E-4,3.1149498E-4,1.2948753E-3,8.8081835E-4,1.9229613E-3,1.1551003E-3,1.4881436E-3,1.6092863E-3,0E0,1.7666444E-4,1.5331097E-3,2.6326133E-3,0E0,0E0,2.4983194E-5,0E0,0E0,3.4557946E-5,0E0,0E0,9.2697097E-4,1.3023838E-3,3.380231E-3,2.483869E-3,3.8173678E-4,8.061627E-4,0E0,5.602427E-4,2.957321E-4,4.2076502E-4,1.909486E-4,0E0,0E0,0E0,0E0,0E0,0E0,0E0,0E0,0E0,0E0,0E0,0E0,0E0,0E0,0E0,0E0,0E0,0E0,0E0,0E0,0E0,0E0,0E0,0E0,0E0,0E0,0E0,0E0,0E0],"parents":[2147483647,0,0,1,1,2,2,3,3,4,4,5,5,6,6,7,7,8,8,9,9,10,10,11,11,12,12,13,13,15,15,18,18,19,19,20,20,21,21,22,22,23,23,24,24,25,25,26,26,28,28,29,29,30,30,33,33,36,36,39,39,40,40,41,41,42,42,43,43,44,44,46,46,47,47,48,48,49,49],"right_children":[2,4,6,8,10,12,14,16,18,20,22,24,26,28,-1,30,-1,-1,32,34,36,38,40,42,44,46,48,-1,50,52,54,-1,-1,56,-1,-1,58,-1,-1,60,62,64,66,68,70,-1,72,74,76,78,-1,-1,-1,-1,-1,-1,-1,-1,-1,-1,-1,-1,-1,-1,-1,-1,-1,-1,-1,-1,-1,-1,-1,-1,-1,-1,-1,-1,-1],"split_conditions":[7.1431317E0,4.439496E0,7.3725276E0,3E0,5E0,2.5020683E1,7.3945055E0,4.0117927E0,4E0,8.382421E0,7E0,2.356281E1,2.5562891E1,3.284914E1,1.3312311E-2,5.85194E-1,-1.54579645E-2,-1.1917591E-3,2.9212263E0,8.22803E0,8.425726E0,6E0,1.1445157E2,2.2762148E1,7.1815934E0,8.689479E0,2E1,1.7549992E-3,4.238002E1,1.8E1,1.7818648E0,-5.0318242E-5,2.716446E-3,1.4389952E1,-1.2456442E-2,1.7694712E-3,1.8043474E1,-1.9442798E-3,7.175207E-3,8.29478E0,7.1307693E0,2.263253E1,8.632929E0,2.4575956E1,1.1E1,1.0334731E-3,2.797954E2,1.9696674E2,2.6569727E1,9.590314E0,3.3863785E-3,-1.1984232E-2,-3.6942675E-3,-1.5350283E-4,-7.2216513E-3,-5.2591325E-3,-1.9393445E-3,-3.5817386E-3,-6.4466003E-4,-6.9250166E-4,-3.4181615E-3,2.2239767E-3,-3.0383081E-3,3.0342361E-3,-5.0956397E-3,1.7989909E-3,1.0487039E-2,-4.3399143E-3,1.1648656E-3,-1.624117E-3,3.0549874E-3,1.6787518E-2,3.5378695E-3,2.779305E-3,-1.3205678E-3,7.731021E-3,1.4551402E-3,9.374256E-3,1.9570114E-3],"split_indices":[2,0,2,5,6,0,2,0,6,3,6,0,0,1,0,0,0,0,0,3,3,6,1,0,2,3,6,0,1,6,0,0,0,0,0,0,0,0,0,3,2,0,3,0,6,0,1,1,0,3,0,0,0,0,0,0,0,0,0,0,0,0,0,0,0,0,0,0,0,0,0,0,0,0,0,0,0,0,0],"split_type":[0,0,0,0,0,0,0,0,0,0,0,0,0,0,0,0,0,0,0,0,0,0,0,0,0,0,0,0,0,0,0,0,0,0,0,0,0,0,0,0,0,0,0,0,0,0,0,0,0,0,0,0,0,0,0,0,0,0,0,0,0,0,0,0,0,0,0,0,0,0,0,0,0,0,0,0,0,0,0],"sum_hessian":[2.84E2,1.39E2,1.45E2,4.1E1,9.8E1,1.31E2,1.4E1,3.7E1,4E0,1.2E1,8.6E1,1.13E2,1.8E1,1E1,4E0,3.4E1,3E0,1E0,3E0,8E0,4E0,4E0,8.2E1,9.4E1,1.9E1,5E0,1.3E1,2E0,8E0,1.3E1,2.1E1,1E0,2E0,6E0,2E0,1E0,3E0,2E0,2E0,6.7E1,1.5E1,8.2E1,1.2E1,5E0,1.4E1,1E0,4E0,8E0,5E0,5E0,3E0,9E0,4E0,7E0,1.4E1,4E0,2E0,2E0,1E0,1.5E1,5.2E1,8E0,7E0,7.8E1,4E0,6E0,6E0,4E0,1E0,4E0,1E1,3E0,1E0,1E0,7E0,3E0,2E0,4E0,1E0],"tree_param":{"num_deleted":"0","num_feature":"7","num_nodes":"79","size_leaf_vector":"1"}},{"base_weights":[-7.266747E-5,-9.801135E-3,9.256499E-3,-1.6725753E-2,-5.3904415E-3,2.1164298E-2,7.3083686E-3,-1.3426361E-2,-3.173089E-2,-9.998584E-3,-4.3409714E-3,1.6931824E-2,1.1851311E-2,-9.142467E-3,8.19967E-3,-2.4172084E-2,-8.46071E-3,-1.0198434E-2,-1.0927831E-2,3.4612692E-3,-5.670946E-3,1.9091193E-2,4.60124E-3,-2.310276E-4,-4.7304872E-3,2.118834E-2,6.708182E-3,-2.69109E-3,-2.9785894E-2,-1.5324389E-2,-3.233099E-3,-5.9635164E-3,1.3742209E-3,-6.564975E-3,7.12564E-3,-1.0728438E-2,-3.9440566E-3,1.4039517E-3,2.0948337E-2,-1.731205E-3,2.9946328E-3,-8.7261206E-4,1.1703015E-3,3.5725497E-2,9.4540715E-3,-5.6505203E-3,8.138447E-3,2.410698E-3,-5.230701E-3,-1.1258718E-2,-3.8964846E-3,-6.0172467E-3,-8.3799363E-4,2.3648143E-3,-1.6975207E-3,-1.472354E-4,-2.5278332E-3,3.648448E-3,-1.0405541E-3,-1.4796444E-3,-7.4437098E-3,1.1914105E-3,-2.081042E-3,7.3416536E-3,3.8275481E-3,4.3262006E-3,1.3536549E-2,-4.2994024E-4,4.881907E-3,3.0737687E-3,-4.46384E-3,2.070117E-3,7.0272856E-3],"categories":[],"categories_nodes":[],"categories_segments":[],"categories_sizes":[],"default_left":[0,0,0,0,0,0,0,0,0,0,0,0,0,0,0,0,0,0,0,0,0,0,0,0,0,0,0,0,0,0,0,0,0,0,0,0,0,0,0,0,0,0,0,0,0,0,0,0,0,0,0,0,0,0,0,0,0,0,0,0,0,0,0,0,0,0,0,0,0,0,0,0,0],"id":13,"left_children":[1,3,5,7,9,11,13,15,17,-1,19,21,-1,23,25,27,29,31,-1,33,35,37,39,41,-1,43,45,47,49,51,53,-1,-1,55,57,59,61,-1,63,-1,-1,-1,-1,65,67,69,71,-1,-1,-1,-1,-1,-1,-1,-1,-1,-1,-1,-1,-1,-1,-1,-1,-1,-1,-1,-1,-1,-1,-1,-1,-1,-1],"loss_changes":[2.5956895E-2,4.1857716E-3,3.232224E-3,2.2473913E-3,2.4061855E-3,8.83596E-4,1.9371221E-3,2.2500241E-3,5.3840503E-4,0E0,9.016552E-4,3.9142976E-4,0E0,4.096764E-4,2.2019306E-3,1.6081072E-3,1.134516E-3,5.202426E-4,0E0,5.24398E-4,5.95249E-4,3.0342443E-4,2.8084347E-4,5.5603905E-5,0E0,1.7092437E-3,1.990371E-3,7.727528E-4,9.4329566E-4,7.743249E-4,5.83788E-4,0E0,0E0,4.108416E-5,5.7568843E-4,1.3470431E-3,1.3541258E-3,0E0,6.294809E-5,0E0,0E0,0E0,0E0,3.5024853E-4,6.1723596E-4,1.9129394E-3,1.7119129E-3,0E0,0E0,0E0,0E0,0E0,0E0,0E0,0E0,0E0,0E0,0E0,0E0,0E0,0E0,0E0,0E0,0E0,0E0,0E0,0E0,0E0,0E0,0E0,0E0,0E0,0E0],"parents":[2147483647,0,0,1,1,2,2,3,3,4,4,5,5,6,6,7,7,8,8,10,10,11,11,13,13,14,14,15,15,16,16,17,17,19,19,20,20,21,21,22,22,23,23,25,25,26,26,27,27,28,28,29,29,30,30,33,33,34,34,35,35,36,36,38,38,43,43,44,44,45,45,46,46],"right_children":[2,4,6,8,10,12,14,16,18,-1,20,22,-1,24,26,28,30,32,-1,34,36,38,40,42,-1,44,46,48,50,52,54,-1,-1,56,58,60,62,-1,64,-1,-1,-1,-1,66,68,70,72,-1,-1,-1,-1,-1,-1,-1,-1,-1,-1,-1,-1,-1,-1,-1,-1,-1,-1,-1,-1,-1,-1,-1,-1,-1,-1],"split_conditions":[7.1431317E0,3.802098E1,7.3056946E0,3.6149208E1,2.5997922E0,3E1,5.8094536E1,5.85194E-1,3.8235703E0,-9.998584E-3,9.735665E0,5.5130608E1,1.1851311E-2,4.245976E1,7.032492E1,-6.018307E-1,2.6958452E1,2.9191737E0,-1.0927831E-2,4.0117927E0,7.0526137E0,3.284914E1,4.459226E0,9.0701065E0,-4.7304872E-3,9.101278E0,8.334009E1,2.9263845E1,1.6E1,7.027405E0,1.7818648E0,-5.9635164E-3,1.3742209E-3,3.5219073E0,2.5E1,5.6855194E1,1.5904637E1,1.4039517E-3,9.414067E0,-1.731205E-3,2.9946328E-3,-8.7261206E-4,1.1703015E-3,9.5636015E0,6.749168E1,1.1E1,7.299725E0,2.410698E-3,-5.230701E-3,-1.1258718E-2,-3.8964846E-3,-6.0172467E-3,-8.3799363E-4,2.3648143E-3,-1.6975207E-3,-1.472354E-4,-2.5278332E-3,3.648448E-3,-1.0405541E-3,-1.4796444E-3,-7.4437098E-3,1.1914105E-3,-2.081042E-3,7.3416536E-3,3.8275481E-3,4.3262006E-3,1.3536549E-2,-4.2994024E-4,4.881907E-3,3.0737687E-3,-4.46384E-3,2.070117E-3,7.0272856E-3],"split_indices":[2,1,0,1,0,6,1,0,0,0,0,1,0,1,1,0,1,0,0,0,2,1,0,0,0,3,1,1,6,2,0,0,0,0,6,1,0,0,3,0,0,0,0,0,1,6,2,0,0,0,0,0,0,0,0,0,0,0,0,0,0,0,0,0,0,0,0,0,0,0,0,0,0],"split_type":[0,0,0,0,0,0,0,0,0,0,0,0,0,0,0,0,0,0,0,0,0,0,0,0,0,0,0,0,0,0,0,0,0,0,0,0,0,0,0,0,0,0,0,0,0,0,0,0,0,0,0,0,0,0,0,0,0,0,0,0,0,0,0,0,0,0,0,0,0,0,0,0,0],"sum_hessian":[2.84E2,1.39E2,1.45E2,5.3E1,8.6E1,1.9E1,1.26E2,4.5E1,8E0,2E0,8.4E1,1.7E1,2E0,6E0,1.2E2,1.3E1,3.2E1,2E0,6E0,1.2E1,7.2E1,1.4E1,3E0,3E0,3E0,1.1E1,1.09E2,3E0,1E1,1.3E1,1.9E1,1E0,1E0,3E0,9E0,1.7E1,5.5E1,2E0,1.2E1,1E0,2E0,2E0,1E0,4E0,7E0,1.1E1,9.8E1,2E0,1E0,6E0,4E0,9E0,4E0,3E0,1.6E1,1E0,2E0,6E0,3E0,1.3E1,4E0,1.5E1,4E1,7E0,5E0,2E0,2E0,3E0,4E0,4E0,7E0,9.2E1,6E0],"tree_param":{"num_deleted":"0","num_feature":"7","num_nodes":"73","size_leaf_vector":"1"}},{"base_weights":[-7.990201E-5,-8.309929E-3,6.3103666E-3,-1.3441194E-2,-5.4552266E-3,2.7003955E-2,5.6111417E-3,-1.5167254E-2,3.0555248E-3,8.196394E-3,-6.4481418E-3,9.365416E-3,1.5221358E-3,4.5865355E-3,1.28116235E-2,1.5659332E-3,-1.6089156E-2,-7.5834995E-4,5.0833225E-3,-7.374287E-4,3.2456734E-3,-1.1908169E-2,-3.7509946E-3,1.4525255E-3,8.132138E-3,3.1504232E-2,3.8853884E-3,2.8859498E-3,-2.1812797E-3,-2.0192243E-2,-9.832859E-3,2.1185876E-4,1.89209E-3,-1.9094944E-3,-1.4312362E-2,4.2090745E-4,-8.440361E-3,6.404666E-3,-2.5909345E-3,5.1621115E-3,2.3951078E-2,5.679846E-4,3.7047766E-2,-6.47227E-4,2.072072E-2,-4.5708986E-3,-1.1605436E-2,-1.6915697E-3,-6.616402E-3,2.543986E-4,-1.4848949E-3,-3.7955047E-4,-4.9621165E-3,-6.0202216E-4,3.74249E-3,-7.196382E-3,-6.804228E-4,2.7495624E-5,5.878882E-3,-4.005964E-3,8.0819713E-4,-1.6358882E-3,2.7536019E-3,2.1906341E-3,1.4129699E-2,1.2544584E-2,2.6966573E-3,1.375065E-3,-1.1506677E-3,9.426213E-3,-1.0188818E-4],"categories":[],"categories_nodes":[],"categories_segments":[],"categories_sizes":[],"default_left":[0,0,0,0,0,0,0,0,0,0,0,0,0,0,0,0,0,0,0,0,0,0,0,0,0,0,0,0,0,0,0,0,0,0,0,0,0,0,0,0,0,0,0,0,0,0,0,0,0,0,0,0,0,0,0,0,0,0,0,0,0,0,0,0,0,0,0,0,0,0,0],"id":14,"left_children":[1,3,5,7,9,11,13,15,17,19,21,-1,-1,23,25,27,29,-1,31,-1,-1,33,35,37,39,41,43,-1,-1,45,47,-1,-1,49,51,53,55,57,59,61,63,-1,65,67,69,-1,-1,-1,-1,-1,-1,-1,-1,-1,-1,-1,-1,-1,-1,-1,-1,-1,-1,-1,-1,-1,-1,-1,-1,-1,-1],"loss_changes":[1.5041182E-2,1.7577047E-3,2.1780627E-3,1.2992145E-3,1.1643537E-3,3.0368567E-4,1.0995315E-3,6.4224936E-4,6.945939E-5,1.9424342E-4,1.089273E-3,0E0,0E0,1.5327495E-3,3.0478318E-3,2.8345882E-4,7.769186E-4,0E0,1.6970218E-5,0E0,0E0,5.7363976E-4,1.0404221E-3,1.5183778E-3,2.930236E-3,9.147534E-4,1.0817242E-3,0E0,0E0,1.4268309E-3,7.470951E-4,0E0,0E0,5.449645E-5,5.6046294E-4,8.736613E-4,2.3446959E-3,2.8296835E-3,2.424842E-3,2.4376726E-3,3.5099657E-3,0E0,2.9298477E-4,2.1770991E-4,6.867077E-4,0E0,0E0,0E0,0E0,0E0,0E0,0E0,0E0,0E0,0E0,0E0,0E0,0E0,0E0,0E0,0E0,0E0,0E0,0E0,0E0,0E0,0E0,0E0,0E0,0E0,0E0],"parents":[2147483647,0,0,1,1,2,2,3,3,4,4,5,5,6,6,7,7,8,8,9,9,10,10,13,13,14,14,15,15,16,16,18,18,21,21,22,22,23,23,24,24,25,25,26,26,29,29,30,30,33,33,34,34,35,35,36,36,37,37,38,38,39,39,40,40,42,42,43,43,44,44],"right_children":[2,4,6,8,10,12,14,16,18,20,22,-1,-1,24,26,28,30,-1,32,-1,-1,34,36,38,40,42,44,-1,-1,46,48,-1,-1,50,52,54,56,58,60,62,64,-1,66,68,70,-1,-1,-1,-1,-1,-1,-1,-1,-1,-1,-1,-1,-1,-1,-1,-1,-1,-1,-1,-1,-1,-1,-1,-1,-1,-1],"split_conditions":[7.118407E0,4.6287503E0,3.3782456E0,3E0,7.0184455E0,3.7572105E1,2.5020683E1,2E0,4E0,1.8954884E1,4.509451E1,9.365416E-3,1.5221358E-3,7.277747E0,2.5562891E1,-6.018307E-1,1.6E1,-7.5834995E-4,2.9212263E0,-7.374287E-4,3.2456734E-3,7.035989E0,8.777154E1,8.791428E0,9.9992035E1,8.689479E0,2.7E1,2.8859498E-3,-2.1812797E-3,1.4E1,3.508071E1,2.1185876E-4,1.89209E-3,3.9205788E1,8.29478E0,7.408993E1,7.082692E0,8.710459E0,9.060629E0,7.3175826E0,7.2873626E0,5.679846E-4,2.797954E2,7.1925826E0,2.6569727E1,-4.5708986E-3,-1.1605436E-2,-1.6915697E-3,-6.616402E-3,2.543986E-4,-1.4848949E-3,-3.7955047E-4,-4.9621165E-3,-6.0202216E-4,3.74249E-3,-7.196382E-3,-6.804228E-4,2.7495624E-5,5.878882E-3,-4.005964E-3,8.0819713E-4,-1.6358882E-3,2.7536019E-3,2.1906341E-3,1.4129699E-2,1.2544584E-2,2.6966573E-3,1.375065E-3,-1.1506677E-3,9.426213E-3,-1.0188818E-4],"split_indices":[2,0,0,5,2,1,0,6,6,1,1,0,0,2,0,0,6,0,0,0,0,2,1,3,1,3,6,0,0,6,1,0,0,1,3,1,2,3,3,2,2,0,1,2,0,0,0,0,0,0,0,0,0,0,0,0,0,0,0,0,0,0,0,0,0,0,0,0,0,0,0],"split_type":[0,0,0,0,0,0,0,0,0,0,0,0,0,0,0,0,0,0,0,0,0,0,0,0,0,0,0,0,0,0,0,0,0,0,0,0,0,0,0,0,0,0,0,0,0,0,0,0,0,0,0,0,0,0,0,0,0,0,0,0,0,0,0,0,0,0,0,0,0,0,0],"sum_hessian":[2.84E2,1.24E2,1.6E2,4.3E1,8.1E1,4E0,1.56E2,3.9E1,4E0,5E0,7.6E1,3E0,1E0,1.38E2,1.8E1,2E0,3.7E1,1E0,3E0,1E0,4E0,2.4E1,5.2E1,7.4E1,6.4E1,5E0,1.3E1,1E0,1E0,2.1E1,1.6E1,1E0,2E0,5E0,1.9E1,2.8E1,2.4E1,3.3E1,4.1E1,5.5E1,9E0,1E0,4E0,1.1E1,2E0,1.8E1,3E0,1.3E1,3E0,3E0,2E0,3E0,1.6E1,2.4E1,4E0,6E0,1.8E1,2.3E1,1E1,1.3E1,2.8E1,1.5E1,4E1,6E0,3E0,3E0,1E0,4E0,7E0,1E0,1E0],"tree_param":{"num_deleted":"0","num_feature":"7","num_nodes":"71","size_leaf_vector":"1"}},{"base_weights":[3.233374E-5,-6.0667973E-3,4.767483E-3,-1.5189205E-2,-4.8723286E-3,1.255312E-2,3.6373406E-3,1.3310114E-3,-1.8053493E-2,4.016876E-3,-5.503198E-3,9.721279E-3,7.607937E-3,-9.393215E-3,4.281286E-3,2.4530413E-3,-1.854086E-3,-7.5338706E-3,-6.808599E-3,-9.6359255E-4,6.9618225E-3,-1.7453007E-2,-4.3377187E-3,5.104661E-3,1.6246727E-2,-2.1525621E-3,-4.2856694E-3,1.4533003E-2,3.2628707E-3,5.2740576E-4,-3.459424E-3,6.501198E-4,2.6452304E-3,-6.745509E-3,-1.0985851E-2,-7.862342E-3,-3.8369074E-3,8.10914E-3,-1.9835474E-3,2.3474455E-2,4.9573183E-3,-1.2488365E-3,5.817175E-4,2.189833E-2,-1.581192E-4,1.10001274E-4,6.676646E-3,-2.4418832E-5,-4.6811583E-3,-3.0422064E-3,-7.633042E-4,5.7244307E-4,2.8262616E-3,8.6570745E-3,1.099062E-3,-1.183033E-4,2.0617964E-3,3.610039E-3,1.0298586E-2,1.6399861E-3,-1.7190457E-3,9.377559E-4,-3.7277534E-3,2.3248994E-3,-2.002945E-3],"categories":[],"categories_nodes":[],"categories_segments":[],"categories_sizes":[],"default_left":[0,0,0,0,0,0,0,0,0,0,0,0,0,0,0,0,0,0,0,0,0,0,0,0,0,0,0,0,0,0,0,0,0,0,0,0,0,0,0,0,0,0,0,0,0,0,0,0,0,0,0,0,0,0,0,0,0,0,0,0,0,0,0,0,0],"id":15,"left_children":[1,3,5,7,9,11,13,15,17,19,21,23,-1,25,27,-1,-1,-1,29,-1,31,33,35,37,39,41,-1,43,45,-1,-1,-1,-1,47,-1,-1,49,51,-1,53,55,-1,-1,57,59,61,63,-1,-1,-1,-1,-1,-1,-1,-1,-1,-1,-1,-1,-1,-1,-1,-1,-1,-1],"loss_changes":[8.259808E-3,1.2880466E-3,1.3709592E-3,6.864902E-4,6.501938E-4,4.7879945E-4,1.231732E-3,2.0479734E-4,7.816041E-4,1.9266983E-4,1.3866555E-3,4.5932503E-4,0E0,2.1721603E-4,1.3724894E-3,0E0,0E0,0E0,2.630237E-4,0E0,3.427529E-5,1.6000101E-3,9.618632E-4,4.760395E-4,4.5480696E-4,4.097222E-5,0E0,1.3019214E-3,1.344664E-3,0E0,0E0,0E0,0E0,4.1196126E-4,0E0,0E0,7.56408E-4,6.336399E-5,0E0,3.2080733E-4,4.3711116E-5,0E0,0E0,5.6789303E-4,1.8803072E-4,2.534054E-3,9.114293E-4,0E0,0E0,0E0,0E0,0E0,0E0,0E0,0E0,0E0,0E0,0E0,0E0,0E0,0E0,0E0,0E0,0E0,0E0],"parents":[2147483647,0,0,1,1,2,2,3,3,4,4,5,5,6,6,7,7,8,8,9,9,10,10,11,11,13,13,14,14,18,18,20,20,21,21,22,22,23,23,24,24,25,25,27,27,28,28,33,33,36,36,37,37,39,39,40,40,43,43,44,44,45,45,46,46],"right_children":[2,4,6,8,10,12,14,16,18,20,22,24,-1,26,28,-1,-1,-1,30,-1,32,34,36,38,40,42,-1,44,46,-1,-1,-1,-1,48,-1,-1,50,52,-1,54,56,-1,-1,58,60,62,64,-1,-1,-1,-1,-1,-1,-1,-1,-1,-1,-1,-1,-1,-1,-1,-1,-1,-1],"split_conditions":[7.118407E0,5.85194E-1,7.3056946E0,2E0,1.7818648E0,3E1,5.8094536E1,-6.018307E-1,1.6E1,1.8435019E1,2.9191737E0,5.718713E0,7.607937E-3,4.245976E1,7.032492E1,2.4530413E-3,-1.854086E-3,-7.5338706E-3,-1.6087225E-1,-9.6359255E-4,2.583121E1,2E0,6.958197E0,5.0187515E1,9.414067E0,9.0701065E0,-4.2856694E-3,2.1E1,1.6559431E2,5.2740576E-4,-3.459424E-3,6.501198E-4,2.6452304E-3,2.3E1,-1.0985851E-2,-7.862342E-3,5E0,3.284914E1,-1.9835474E-3,5.5130608E1,9.430506E0,-1.2488365E-3,5.817175E-4,1.8E1,9.5636015E0,1.3668048E2,3E1,-2.4418832E-5,-4.6811583E-3,-3.0422064E-3,-7.633042E-4,5.7244307E-4,2.8262616E-3,8.6570745E-3,1.099062E-3,-1.183033E-4,2.0617964E-3,3.610039E-3,1.0298586E-2,1.6399861E-3,-1.7190457E-3,9.377559E-4,-3.7277534E-3,2.3248994E-3,-2.002945E-3],"split_indices":[2,0,0,6,0,6,1,0,6,1,0,0,0,1,1,0,0,0,0,0,1,5,2,1,3,0,0,6,1,0,0,0,0,6,0,0,6,1,0,1,3,0,0,6,0,1,6,0,0,0,0,0,0,0,0,0,0,0,0,0,0,0,0,0,0],"split_type":[0,0,0,0,0,0,0,0,0,0,0,0,0,0,0,0,0,0,0,0,0,0,0,0,0,0,0,0,0,0,0,0,0,0,0,0,0,0,0,0,0,0,0,0,0,0,0,0,0,0,0,0,0,0,0,0,0,0,0,0,0,0,0,0,0],"sum_hessian":[2.84E2,1.24E2,1.6E2,1.3E1,1.11E2,1.9E1,1.41E2,2E0,1.1E1,7E0,1.04E2,1.7E1,2E0,6E0,1.35E2,1E0,1E0,6E0,5E0,2E0,5E0,8E0,9.6E1,1.1E1,6E0,3E0,3E0,1.1E1,1.24E2,2E0,3E0,2E0,3E0,6E0,2E0,1E0,9.5E1,9E0,2E0,3E0,3E0,2E0,1E0,7E0,4E0,6.5E1,5.9E1,4E0,2E0,1.5E1,8E1,2E0,7E0,2E0,1E0,1E0,2E0,5E0,2E0,2E0,2E0,5.3E1,1.2E1,5.5E1,4E0],"tree_param":{"num_deleted":"0","num_feature":"7","num_nodes":"65","size_leaf_vector":"1"}},{"base_weights":[-4.5985507E-6,-5.2339495E-3,3.121352E-3,-4.3504457E-3,-1.4370944E-2,1.6906548E-2,2.709653E-3,-7.511607E-3,-3.9012698E-4,-5.232811E-3,1.5304686E-3,5.9050084E-3,8.6989405E-4,2.0002995E-3,7.816326E-3,-5.3111087E-3,-1.8168475E-2,-1.6588874E-3,1.0091734E-2,-7.0736525E-5,4.3887263E-3,1.8342793E-2,1.242893E-3,-9.46537E-3,-5.646892E-4,-2.231196E-2,-2.4441879E-3,-9.0648215E-3,1.7182169E-3,5.684281E-3,-2.1280448E-3,3.0217618E-3,-4.080714E-3,5.482912E-3,-1.1369944E-2,2.3941994E-3,2.3259958E-2,-2.5656223E-3,1.6062656E-2,-6.6829924E-3,-2.4010122E-3,-4.914487E-3,7.880796E-4,-7.9073785E-3,2.945781E-4,2.2745133E-5,-1.1226297E-3,-1.2539704E-3,-4.8134136E-3,3.2602723E-3,-1.1007636E-3,-2.2448301E-3,1.28721E-3,4.4831773E-4,1.1221219E-2,-4.2718425E-3,1.0478888E-3,1.1499992E-3,9.275366E-3,2.797437E-3,-8.482409E-3,9.4335084E-4,1.3403893E-4,9.198904E-3,1.6907692E-3,-1.458486E-3,9.7253325E-4,7.6635364E-3,-4.3534042E-4],"categories":[],"categories_nodes":[],"categories_segments":[],"categories_sizes":[],"default_left":[0,0,0,0,0,0,0,0,0,0,0,0,0,0,0,0,0,0,0,0,0,0,0,0,0,0,0,0,0,0,0,0,0,0,0,0,0,0,0,0,0,0,0,0,0,0,0,0,0,0,0,0,0,0,0,0,0,0,0,0,0,0,0,0,0,0,0,0,0],"id":16,"left_children":[1,3,5,7,9,11,13,15,17,-1,-1,-1,-1,19,21,23,25,27,29,31,33,35,37,39,41,43,45,47,49,-1,51,53,55,57,59,61,63,65,67,-1,-1,-1,-1,-1,-1,-1,-1,-1,-1,-1,-1,-1,-1,-1,-1,-1,-1,-1,-1,-1,-1,-1,-1,-1,-1,-1,-1,-1,-1],"loss_changes":[4.6751443E-3,8.012452E-4,9.70077E-4,1.2364709E-3,6.2731863E-4,1.373979E-4,6.182913E-4,1.1932789E-3,6.1519473E-4,0E0,0E0,0E0,0E0,7.6702074E-4,1.4302975E-3,9.213949E-4,5.3184526E-4,1.0410104E-3,5.8140507E-4,1.0540023E-3,1.3038301E-3,5.7168584E-4,8.313889E-4,2.8996263E-4,1.2041114E-3,6.856059E-4,1.00959405E-5,3.761853E-4,1.4693291E-3,0E0,1.352181E-4,2.464798E-3,2.896487E-3,2.7345615E-3,2.012852E-3,2.978477E-6,6.100177E-4,1.7576557E-4,5.3529104E-4,0E0,0E0,0E0,0E0,0E0,0E0,0E0,0E0,0E0,0E0,0E0,0E0,0E0,0E0,0E0,0E0,0E0,0E0,0E0,0E0,0E0,0E0,0E0,0E0,0E0,0E0,0E0,0E0,0E0,0E0],"parents":[2147483647,0,0,1,1,2,2,3,3,4,4,5,5,6,6,7,7,8,8,13,13,14,14,15,15,16,16,17,17,18,18,19,19,20,20,21,21,22,22,23,23,24,24,25,25,26,26,27,27,28,28,30,30,31,31,32,32,33,33,34,34,35,35,36,36,37,37,38,38],"right_children":[2,4,6,8,10,12,14,16,18,-1,-1,-1,-1,20,22,24,26,28,30,32,34,36,38,40,42,44,46,48,50,-1,52,54,56,58,60,62,64,66,68,-1,-1,-1,-1,-1,-1,-1,-1,-1,-1,-1,-1,-1,-1,-1,-1,-1,-1,-1,-1,-1,-1,-1,-1,-1,-1,-1,-1,-1,-1],"split_conditions":[7.0881867E0,8.777154E1,3.3782456E0,7.405984E0,1.0724688E2,3.7572105E1,2.4890932E1,7.031868E0,7.408993E1,-5.232811E-3,1.5304686E-3,5.9050084E-3,8.6989405E-4,7.2681317E0,2.5562891E1,2E0,1.7E1,1.2E1,8.099872E1,8.872755E0,2.0004124E1,8.710459E0,2.7E1,7.755759E0,2.3727896E1,7.081319E0,6.187405E0,7.0387363E0,1.9E1,5.684281E-3,1.5134866E1,7.261264E0,1.6559431E2,1.1621237E2,9.259662E0,2.5004997E1,9.207759E0,2E1,2.6569727E1,-6.6829924E-3,-2.4010122E-3,-4.914487E-3,7.880796E-4,-7.9073785E-3,2.945781E-4,2.2745133E-5,-1.1226297E-3,-1.2539704E-3,-4.8134136E-3,3.2602723E-3,-1.1007636E-3,-2.2448301E-3,1.28721E-3,4.4831773E-4,1.1221219E-2,-4.2718425E-3,1.0478888E-3,1.1499992E-3,9.275366E-3,2.797437E-3,-8.482409E-3,9.4335084E-4,1.3403893E-4,9.198904E-3,1.6907692E-3,-1.458486E-3,9.7253325E-4,7.6635364E-3,-4.3534042E-4],"split_indices":[2,1,0,0,1,1,0,2,1,0,0,0,0,2,0,5,6,6,1,3,0,3,6,3,1,2,0,2,6,0,0,2,1,1,3,0,3,6,0,0,0,0,0,0,0,0,0,0,0,0,0,0,0,0,0,0,0,0,0,0,0,0,0,0,0,0,0,0,0],"split_type":[0,0,0,0,0,0,0,0,0,0,0,0,0,0,0,0,0,0,0,0,0,0,0,0,0,0,0,0,0,0,0,0,0,0,0,0,0,0,0,0,0,0,0,0,0,0,0,0,0,0,0,0,0,0,0,0,0,0,0,0,0,0,0,0,0,0,0,0,0],"sum_hessian":[2.84E2,1.06E2,1.78E2,9.8E1,8E0,4E0,1.74E2,5.4E1,4.4E1,7E0,1E0,3E0,1E0,1.54E2,2E1,4.6E1,8E0,4E1,4E0,8.3E1,7.1E1,7E0,1.3E1,2.4E1,2.2E1,6E0,2E0,1.2E1,2.8E1,2E0,2E0,4.7E1,3.6E1,6.7E1,4E0,2E0,5E0,1.1E1,2E0,1E0,2.3E1,3E0,1.9E1,5E0,1E0,1E0,1E0,8E0,4E0,1E1,1.8E1,1E0,1E0,4.6E1,1E0,1.5E1,2.1E1,6.4E1,3E0,2E0,2E0,1E0,1E0,3E0,2E0,8E0,3E0,1E0,1E0],"tree_param":{"num_deleted":"0","num_feature":"7","num_nodes":"69","size_leaf_vector":"1"}},{"base_weights":[4.5419994E-5,-3.8955568E-3,2.4009456E-3,-5.0075166E-3,1.586179E-4,7.730064E-3,1.6819995E-3,-4.083719E-3,-1.4585904E-2,-2.257228E-3,9.790277E-3,1.0699193E-2,3.3941031E-3,-8.706093E-3,2.2176756E-3,-5.7898397E-3,8.096886E-3,-1.8232584E-2,1.0941267E-3,-1.133283E-4,-7.2407722E-3,4.2879344E-3,2.0240147E-3,4.887581E-3,1.2994051E-2,-1.3216336E-4,5.2695754E-3,-3.9395215E-3,-3.4243583E-3,1.3947828E-2,1.6400814E-3,-4.801329E-3,-1.53689785E-2,1.5372685E-2,-6.6599846E-3,-7.180929E-3,-2.818966E-3,-5.932188E-3,2.5419106E-3,-4.538107E-3,4.8410892E-4,2.6213767E-3,-1.71057E-3,8.101304E-3,4.4663746E-5,6.6997535E-3,6.159147E-3,2.9723246E-3,-4.7558546E-3,-1.4451027E-3,3.2193662E-4,2.1625519E-2,-3.4976006E-3,-5.947278E-3,2.363929E-3,-2.0012374E-3,-6.7685783E-6,-5.056143E-3,-1.1917234E-3,5.3468086E-3,1.8495322E-3,-3.5312655E-3,1.3009072E-3,2.9861927E-4,-3.2647133E-3,1.2760968E-3,-4.5511723E-4,9.7506045E-4,-1.1721253E-3,7.394314E-4,2.9061558E-3,3.222227E-4,-3.0212404E-4,4.8251153E-4,2.4097324E-3,-1.18494045E-5,1.3464332E-3,-1.2824536E-4,-1.816845E-3,2.155161E-3,8.657599E-3,-2.1894695E-3,6.155491E-4,1.8946231E-4,-4.1183475E-3,-7.5194554E-4,1.0348053E-3],"categories":[],"categories_nodes":[],"categories_segments":[],"categories_sizes":[],"default_left":[0,0,0,0,0,0,0,0,0,0,0,0,0,0,0,0,0,0,0,0,0,0,0,0,0,0,0,0,0,0,0,0,0,0,0,0,0,0,0,0,0,0,0,0,0,0,0,0,0,0,0,0,0,0,0,0,0,0,0,0,0,0,0,0,0,0,0,0,0,0,0,0,0,0,0,0,0,0,0,0,0,0,0,0,0,0,0],"id":17,"left_children":[1,3,5,7,9,11,13,15,17,19,21,23,25,27,29,31,33,35,-1,37,39,-1,41,43,45,47,-1,-1,49,51,53,55,57,59,61,-1,-1,63,65,-1,67,-1,-1,69,71,-1,73,75,77,-1,-1,79,81,83,85,-1,-1,-1,-1,-1,-1,-1,-1,-1,-1,-1,-1,-1,-1,-1,-1,-1,-1,-1,-1,-1,-1,-1,-1,-1,-1,-1,-1,-1,-1,-1,-1],"loss_changes":[2.6550286E-3,4.8315886E-4,6.7280943E-4,6.8370835E-4,5.8054534E-4,2.3404043E-4,9.040868E-4,1.667843E-3,5.31925E-4,2.1286376E-4,1.459216E-4,9.65324E-5,5.020339E-4,1.4203286E-4,1.0069648E-3,5.7957484E-4,1.1760623E-3,7.747649E-5,0E0,2.4683605E-4,3.7284524E-4,0E0,2.0543596E-4,7.745714E-5,3.7307048E-4,1.4332369E-4,0E0,0E0,3.648633E-5,1.0132219E-3,8.1590447E-4,5.7160784E-4,3.458152E-5,4.8031798E-5,2.7584753E-4,0E0,0E0,1.8229659E-4,8.2880135E-5,0E0,6.12846E-5,0E0,0E0,2.9399234E-6,4.329713E-6,0E0,3.823047E-5,2.7568934E-5,1.9923726E-5,0E0,0E0,3.1497562E-4,7.824875E-5,6.7409803E-4,7.1703066E-4,0E0,0E0,0E0,0E0,0E0,0E0,0E0,0E0,0E0,0E0,0E0,0E0,0E0,0E0,0E0,0E0,0E0,0E0,0E0,0E0,0E0,0E0,0E0,0E0,0E0,0E0,0E0,0E0,0E0,0E0,0E0,0E0],"parents":[2147483647,0,0,1,1,2,2,3,3,4,4,5,5,6,6,7,7,8,8,9,9,10,10,11,11,12,12,13,13,14,14,15,15,16,16,17,17,19,19,20,20,22,22,23,23,24,24,25,25,28,28,29,29,30,30,31,31,32,32,33,33,34,34,37,37,38,38,40,40,43,43,44,44,46,46,47,47,48,48,51,51,52,52,53,53,54,54],"right_children":[2,4,6,8,10,12,14,16,18,20,22,24,26,28,30,32,34,36,-1,38,40,-1,42,44,46,48,-1,-1,50,52,54,56,58,60,62,-1,-1,64,66,-1,68,-1,-1,70,72,-1,74,76,78,-1,-1,80,82,84,86,-1,-1,-1,-1,-1,-1,-1,-1,-1,-1,-1,-1,-1,-1,-1,-1,-1,-1,-1,-1,-1,-1,-1,-1,-1,-1,-1,-1,-1,-1,-1,-1],"split_conditions":[7.0881867E0,2.3E1,7.3056946E0,1.7160168E1,1.43131075E1,4.238002E1,5.8094536E1,6.9057785E1,8.927818E0,9.510003E0,2.5E1,9.413449E0,7.255614E0,7.349176E0,6.744412E1,5.6855194E1,7.081319E0,7.075213E0,1.0941267E-3,2.9191737E0,1.2288993E1,4.2879344E-3,1.5238087E1,7.3931317E0,9.42276E0,7.365659E0,5.2695754E-3,-3.9395215E-3,9.0701065E0,9.101278E0,3E0,7.405984E0,6.826644E1,7.6090675E1,1.0724688E2,-7.180929E-3,-2.818966E-3,1.0002878E0,7.0524726E0,-4.538107E-3,1.4004121E1,2.6213767E-3,-1.71057E-3,2.3093073E0,3.9262412E0,6.6997535E-3,7.3793955E0,4.653493E1,4.3659515E1,-1.4451027E-3,3.2193662E-4,9.5636015E0,1.0155527E1,7.2351646E0,9.4901E1,-2.0012374E-3,-6.7685783E-6,-5.056143E-3,-1.1917234E-3,5.3468086E-3,1.8495322E-3,-3.5312655E-3,1.3009072E-3,2.9861927E-4,-3.2647133E-3,1.2760968E-3,-4.5511723E-4,9.7506045E-4,-1.1721253E-3,7.394314E-4,2.9061558E-3,3.222227E-4,-3.0212404E-4,4.8251153E-4,2.4097324E-3,-1.18494045E-5,1.3464332E-3,-1.2824536E-4,-1.816845E-3,2.155161E-3,8.657599E-3,-2.1894695E-3,6.155491E-4,1.8946231E-4,-4.1183475E-3,-7.5194554E-4,1.0348053E-3],"split_indices":[2,6,0,0,0,1,1,1,3,0,6,3,0,2,1,1,2,2,0,0,0,0,0,2,3,2,0,0,0,3,6,0,1,1,1,0,0,0,2,0,0,0,0,0,0,0,2,1,1,0,0,0,0,2,1,0,0,0,0,0,0,0,0,0,0,0,0,0,0,0,0,0,0,0,0,0,0,0,0,0,0,0,0,0,0,0,0],"split_type":[0,0,0,0,0,0,0,0,0,0,0,0,0,0,0,0,0,0,0,0,0,0,0,0,0,0,0,0,0,0,0,0,0,0,0,0,0,0,0,0,0,0,0,0,0,0,0,0,0,0,0,0,0,0,0,0,0,0,0,0,0,0,0,0,0,0,0,0,0,0,0,0,0,0,0,0,0,0,0,0,0,0,0,0,0,0,0],"sum_hessian":[2.84E2,1.06E2,1.78E2,8.3E1,2.3E1,2E1,1.58E2,7.7E1,6E0,1.9E1,4E0,1.1E1,9E0,7E0,1.51E2,6.8E1,9E0,5E0,1E0,1.4E1,5E0,2E0,2E0,4E0,7E0,8E0,1E0,3E0,4E0,6E0,1.45E2,6.3E1,5E0,6E0,3E0,2E0,3E0,4E0,1E1,2E0,3E0,1E0,1E0,2E0,2E0,2E0,5E0,5E0,3E0,3E0,1E0,4E0,2E0,1.2E1,1.33E2,4.5E1,1.8E1,4E0,1E0,4E0,2E0,2E0,1E0,2E0,2E0,7E0,3E0,2E0,1E0,1E0,1E0,1E0,1E0,2E0,3E0,2E0,3E0,1E0,2E0,2E0,2E0,1E0,1E0,7E0,5E0,2.4E1,1.09E2],"tree_param":{"num_deleted":"0","num_feature":"7","num_nodes":"87","size_leaf_vector":"1"}},{"base_weights":[4.7861067E-5,-2.268145E-3,2.7878084E-3,-1.9141245E-3,-1.0740638E-2,1.3872994E-3,5.7225227E-3,-4.1936655E-3,-2.6042896E-4,-3.825531E-3,-1.0274649E-4,3.7988408E-3,-8.469913E-3,1.9693136E-2,2.8470557E-3,-8.723582E-4,-7.1866005E-3,-1.1112077E-2,6.691072E-4,2.6367765E-3,2.3185253E-2,7.493377E-3,-1.1906722E-2,2.88468E-2,5.616188E-3,-5.8642626E-3,5.1520034E-3,-6.0137683E-3,3.1749804E-3,-5.656803E-3,-4.4293487E-3,-4.0125847E-4,-1.5316153E-2,6.4078015E-3,-6.0662103E-4,3.937609E-3,-8.318306E-3,9.205867E-3,1.023531E-4,8.408499E-3,-1.8804368E-2,1.1671544E-3,1.0760617E-2,2.433777E-3,-2.8095246E-4,-1.3357639E-2,1.3032913E-3,5.2861692E-3,3.575793E-3,-6.65682E-4,-4.483831E-3,1.5052967E-3,-7.858515E-4,-4.5525553E-3,-9.0572564E-4,-4.0841106E-4,2.2784472E-4,-6.030393E-3,5.736709E-4,3.6480726E-4,3.2395811E-3,2.8370046E-3,-4.1500144E-4,8.122534E-4,5.668602E-3,4.220057E-3,-1.5807153E-5,6.515265E-4,-6.2200073E-3,8.2876685E-4,-5.895567E-3,-4.3880942E-4,1.0904551E-3,-2.0347883E-3,1.7016463E-3],"categories":[],"categories_nodes":[],"categories_segments":[],"categories_sizes":[],"default_left":[0,0,0,0,0,0,0,0,0,0,0,0,0,0,0,0,0,0,0,0,0,0,0,0,0,0,0,0,0,0,0,0,0,0,0,0,0,0,0,0,0,0,0,0,0,0,0,0,0,0,0,0,0,0,0,0,0,0,0,0,0,0,0,0,0,0,0,0,0,0,0,0,0,0,0],"id":18,"left_children":[1,3,5,7,9,11,13,15,17,-1,-1,19,21,23,25,27,29,31,33,35,37,-1,39,41,43,45,47,49,51,-1,53,55,57,59,61,63,-1,-1,-1,65,67,-1,-1,-1,-1,69,71,-1,73,-1,-1,-1,-1,-1,-1,-1,-1,-1,-1,-1,-1,-1,-1,-1,-1,-1,-1,-1,-1,-1,-1,-1,-1,-1,-1],"loss_changes":[1.8148576E-3,4.443539E-4,5.3048355E-4,5.6435785E-4,1.21105E-4,2.1715728E-3,1.631158E-3,6.199796E-4,8.950911E-4,0E0,0E0,1.5834284E-3,2.366574E-3,7.399807E-4,7.5306155E-4,6.6417345E-4,9.782716E-4,3.0905788E-4,6.0421025E-4,2.8741157E-3,6.7494134E-4,0E0,2.5402782E-3,5.614166E-4,7.3030154E-5,4.4708236E-4,5.0693174E-4,4.4138898E-4,2.0533608E-4,0E0,3.785097E-4,4.3772593E-6,4.5064115E-4,3.288096E-4,5.445929E-4,1.200005E-3,0E0,0E0,0E0,2.401233E-4,5.7104323E-4,0E0,0E0,0E0,0E0,4.6014762E-4,3.7562022E-5,0E0,6.247768E-4,0E0,0E0,0E0,0E0,0E0,0E0,0E0,0E0,0E0,0E0,0E0,0E0,0E0,0E0,0E0,0E0,0E0,0E0,0E0,0E0,0E0,0E0,0E0,0E0,0E0,0E0],"parents":[2147483647,0,0,1,1,2,2,3,3,4,4,5,5,6,6,7,7,8,8,11,11,12,12,13,13,14,14,15,15,16,16,17,17,18,18,19,19,20,20,22,22,23,23,24,24,25,25,26,26,27,27,28,28,30,30,31,31,32,32,33,33,34,34,35,35,39,39,40,40,45,45,46,46,48,48],"right_children":[2,4,6,8,10,12,14,16,18,-1,-1,20,22,24,26,28,30,32,34,36,38,-1,40,42,44,46,48,50,52,-1,54,56,58,60,62,64,-1,-1,-1,66,68,-1,-1,-1,-1,70,72,-1,74,-1,-1,-1,-1,-1,-1,-1,-1,-1,-1,-1,-1,-1,-1,-1,-1,-1,-1,-1,-1,-1,-1,-1,-1,-1,-1],"split_conditions":[7.1664834E0,2.3425587E1,2.2757755E1,8.390337E0,2.4575956E1,2.0004124E1,2.3485106E1,3.5980724E1,2.8157456E0,-3.825531E-3,-1.0274649E-4,1.17185936E2,7.1802197E0,9.001474E0,2.4082088E1,2.8104254E1,3.798849E1,1.8435019E1,7E0,1.1490812E2,1.7821684E1,7.493377E-3,7E0,2.3063557E1,1.8375374E2,8.930506E0,2.4185524E1,2.1372082E1,2.1E1,-5.656803E-3,2.5997922E0,1.0002878E0,7.0115595E0,4E0,7.024463E0,1.8410809E1,-8.318306E-3,9.205867E-3,1.023531E-4,1.8375374E2,9.595505E1,1.1671544E-3,1.0760617E-2,2.433777E-3,-2.8095246E-4,2.356281E1,2.3637566E1,5.2861692E-3,2.2459842E2,-6.65682E-4,-4.483831E-3,1.5052967E-3,-7.858515E-4,-4.5525553E-3,-9.0572564E-4,-4.0841106E-4,2.2784472E-4,-6.030393E-3,5.736709E-4,3.6480726E-4,3.2395811E-3,2.8370046E-3,-4.1500144E-4,8.122534E-4,5.668602E-3,4.220057E-3,-1.5807153E-5,6.515265E-4,-6.2200073E-3,8.2876685E-4,-5.895567E-3,-4.3880942E-4,1.0904551E-3,-2.0347883E-3,1.7016463E-3],"split_indices":[2,0,0,3,0,0,0,1,0,0,0,1,2,3,0,1,1,1,6,1,0,0,6,0,1,3,0,1,6,0,0,0,2,6,2,0,0,0,0,1,1,0,0,0,0,0,0,0,1,0,0,0,0,0,0,0,0,0,0,0,0,0,0,0,0,0,0,0,0,0,0,0,0,0,0],"split_type":[0,0,0,0,0,0,0,0,0,0,0,0,0,0,0,0,0,0,0,0,0,0,0,0,0,0,0,0,0,0,0,0,0,0,0,0,0,0,0,0,0,0,0,0,0,0,0,0,0,0,0,0,0,0,0,0,0,0,0,0,0,0,0,0,0,0,0,0,0,0,0,0,0,0,0],"sum_hessian":[2.84E2,1.54E2,1.3E2,1.49E2,5E0,8.9E1,4.1E1,6.2E1,8.7E1,4E0,1E0,7.2E1,1.7E1,6E0,3.5E1,3E1,3.2E1,6E0,8.1E1,6.9E1,3E0,1E0,1.6E1,3E0,3E0,7E0,2.8E1,1.3E1,1.7E1,5E0,2.7E1,2E0,4E0,1.4E1,6.7E1,6.7E1,2E0,2E0,1E0,4E0,1.2E1,1E0,2E0,2E0,1E0,3E0,4E0,2E0,2.6E1,1E1,3E0,1.3E1,4E0,2E0,2.5E1,1E0,1E0,3E0,1E0,7E0,7E0,4E0,6.3E1,6.3E1,4E0,2E0,2E0,1E0,1.1E1,1E0,2E0,2E0,2E0,4E0,2.2E1],"tree_param":{"num_deleted":"0","num_feature":"7","num_nodes":"75","size_leaf_vector":"1"}},{"base_weights":[6.560192E-5,-2.1377422E-3,1.8003255E-3,-1.4812285E-3,-1.1636168E-2,2.4704516E-2,1.2053122E-3,-2.28463E-3,3.8334578E-3,-1.8135976E-2,-6.0236454E-4,6.5867906E-4,9.442687E-3,6.05422E-4,6.454006E-3,-1.7753311E-3,-8.1743E-3,9.365529E-3,-1.5098783E-3,-1.3696671E-3,-7.6983217E-3,3.9138796E-4,-5.018711E-4,-1.4722202E-3,3.3883932E-3,1.9074868E-2,6.57479E-4,-3.1386118E-3,9.6371677E-4,-3.9401297E-3,-2.571869E-3,1.3213396E-2,-2.6354315E-3,-3.7227394E-3,3.3769268E-3,4.7248234E-3,-4.2731133E-3,2.2101835E-3,1.2161697E-2,6.513405E-3,1.2793422E-3,-6.1896867E-3,8.53626E-3,-2.260762E-4,-1.5484163E-3,1.0486214E-3,-6.9220073E-4,8.9752674E-4,-2.1834613E-3,4.94535E-3,1.0071278E-3,-1.3124467E-3,2.2057772E-3,1.6843592E-4,5.552745E-3,-8.6834915E-3,-9.94701E-4,9.868417E-5,2.6771608E-3,4.453671E-3,-5.912304E-4,-2.5655509E-3,1.1974812E-3,5.5653574E-3,-3.3270122E-4],"categories":[],"categories_nodes":[],"categories_segments":[],"categories_sizes":[],"default_left":[0,0,0,0,0,0,0,0,0,0,0,0,0,0,0,0,0,0,0,0,0,0,0,0,0,0,0,0,0,0,0,0,0,0,0,0,0,0,0,0,0,0,0,0,0,0,0,0,0,0,0,0,0,0,0,0,0,0,0,0,0,0,0,0,0],"id":19,"left_children":[1,3,5,7,9,11,13,15,17,19,21,-1,-1,23,25,27,29,31,33,-1,-1,-1,-1,35,37,39,41,43,45,-1,47,49,-1,-1,51,53,55,57,59,-1,-1,61,63,-1,-1,-1,-1,-1,-1,-1,-1,-1,-1,-1,-1,-1,-1,-1,-1,-1,-1,-1,-1,-1,-1],"loss_changes":[1.0931737E-3,7.6848106E-4,2.1507507E-3,5.1686744E-4,5.628164E-4,5.4053357E-4,4.9042905E-4,2.9744656E-4,4.870963E-4,3.9343652E-4,1.0348549E-5,0E0,0E0,8.26035E-4,1.1579734E-3,3.6523162E-4,1.8850213E-4,6.747961E-4,5.212674E-4,0E0,0E0,0E0,0E0,1.4434849E-3,6.036648E-4,1.0264909E-4,7.002046E-4,3.096945E-4,2.8134743E-4,0E0,1.5269603E-4,1.7034693E-4,0E0,0E0,2.478947E-4,1.4817285E-3,1.2504766E-3,6.917161E-4,2.9476522E-4,0E0,0E0,2.0248361E-4,6.0015323E-4,0E0,0E0,0E0,0E0,0E0,0E0,0E0,0E0,0E0,0E0,0E0,0E0,0E0,0E0,0E0,0E0,0E0,0E0,0E0,0E0,0E0,0E0],"parents":[2147483647,0,0,1,1,2,2,3,3,4,4,5,5,6,6,7,7,8,8,9,9,10,10,13,13,14,14,15,15,16,16,17,17,18,18,23,23,24,24,25,25,26,26,27,27,28,28,30,30,31,31,34,34,35,35,36,36,37,37,38,38,41,41,42,42],"right_children":[2,4,6,8,10,12,14,16,18,20,22,-1,-1,24,26,28,30,32,34,-1,-1,-1,-1,36,38,40,42,44,46,-1,48,50,-1,-1,52,54,56,58,60,-1,-1,62,64,-1,-1,-1,-1,-1,-1,-1,-1,-1,-1,-1,-1,-1,-1,-1,-1,-1,-1,-1,-1,-1,-1],"split_conditions":[8.7233515E0,8.675773E0,8.730832E0,8.6201105E0,1.8385338E1,1.318224E1,2.5020683E1,8.582565E0,8.649648E0,7.044231E0,2.5004997E1,6.5867906E-4,9.442687E-3,9.225598E0,2.5562891E1,8.390337E0,8.604378E0,2.356281E1,8.653606E0,-1.3696671E-3,-7.6983217E-3,3.9138796E-4,-5.018711E-4,7.610755E1,3E1,2.797954E2,2.6264227E1,3.5980724E1,8.50073E0,-3.9401297E-3,1.6170753E1,2.1459576E1,-2.6354315E-3,-3.7227394E-3,3.653906E1,6.7386955E1,7.845198E1,1.2218779E2,2.0004124E1,6.513405E-3,1.2793422E-3,2.785625E2,2.6739931E1,-2.260762E-4,-1.5484163E-3,1.0486214E-3,-6.9220073E-4,8.9752674E-4,-2.1834613E-3,4.94535E-3,1.0071278E-3,-1.3124467E-3,2.2057772E-3,1.6843592E-4,5.552745E-3,-8.6834915E-3,-9.94701E-4,9.868417E-5,2.6771608E-3,4.453671E-3,-5.912304E-4,-2.5655509E-3,1.1974812E-3,5.5653574E-3,-3.3270122E-4],"split_indices":[3,3,3,3,0,0,0,3,3,2,0,0,0,3,0,3,3,0,3,0,0,0,0,1,6,1,0,1,3,0,0,0,0,0,1,1,1,1,0,0,0,1,0,0,0,0,0,0,0,0,0,0,0,0,0,0,0,0,0,0,0,0,0,0,0],"split_type":[0,0,0,0,0,0,0,0,0,0,0,0,0,0,0,0,0,0,0,0,0,0,0,0,0,0,0,0,0,0,0,0,0,0,0,0,0,0,0,0,0,0,0,0,0,0,0,0,0,0,0,0,0,0,0,0,0,0,0,0,0,0,0,0,0],"sum_hessian":[2.84E2,1.25E2,1.59E2,1.18E2,7E0,3E0,1.56E2,1.03E2,1.5E1,4E0,3E0,1E0,2E0,1.41E2,1.5E1,9.6E1,7E0,7E0,8E0,2E0,2E0,1E0,2E0,8.1E1,6E1,4E0,1.1E1,6.4E1,3.2E1,3E0,4E0,6E0,1E0,2E0,6E0,2.5E1,5.6E1,5.4E1,6E0,3E0,1E0,6E0,5E0,3E1,3.4E1,1.8E1,1.4E1,2E0,2E0,4E0,2E0,2E0,4E0,2E1,5E0,1E0,5.5E1,4.3E1,1.1E1,5E0,1E0,5E0,1E0,2E0,3E0],"tree_param":{"num_deleted":"0","num_feature":"7","num_nodes":"65","size_leaf_vector":"1"}},{"base_weights":[7.78742E-5,-1.391377E-3,1.8157067E-3,-5.6043863E-3,-9.6621143E-4,4.592657E-3,9.0892555E-4,2.158594E-3,-8.925438E-3,5.066113E-3,-1.4615854E-3,6.904849E-3,-1.3318896E-2,-1.1583328E-2,1.6883423E-3,-3.1819344E-3,2.0338774E-3,-1.0597547E-2,9.1853144E-4,7.0890784E-3,-2.46346E-4,-1.1234999E-2,-9.883407E-4,9.688076E-4,1.6530298E-2,-6.3451296E-3,1.5263559E-3,4.0102005E-4,-1.7675757E-2,1.1524848E-2,8.957145E-4,-1.2227655E-3,-2.0910503E-4,-5.2803755E-4,-1.1482209E-2,3.4286499E-3,2.9677034E-3,-3.7239792E-4,1.4972687E-4,-2.0776987E-3,-5.9099197E-3,-4.6738386E-3,-7.488917E-4,2.2938391E-3,-2.0587922E-3,-5.3409934E-3,2.5399655E-2,-9.768248E-4,1.1572838E-3,-6.411076E-3,-9.88841E-4,7.740855E-4,1.9394398E-2,-1.42588215E-2,1.9675181E-3,-1.1383058E-3,-4.0237308E-3,1.1979998E-3,1.75488E-4,1.4384866E-3,-1.7900706E-3,-1.2426889E-4,-2.2119284E-3,-1.7736437E-3,1.134634E-3,5.533934E-4,-2.5053264E-3,9.272919E-3,3.6486448E-3,-1.6829253E-3,1.4315844E-3,7.647419E-3,1.6551018E-4,4.33209E-3,-6.866012E-3,-8.154461E-4,1.0422785E-3],"categories":[],"categories_nodes":[],"categories_segments":[],"categories_sizes":[],"default_left":[0,0,0,0,0,0,0,0,0,0,0,0,0,0,0,0,0,0,0,0,0,0,0,0,0,0,0,0,0,0,0,0,0,0,0,0,0,0,0,0,0,0,0,0,0,0,0,0,0,0,0,0,0,0,0,0,0,0,0,0,0,0,0,0,0,0,0,0,0,0,0,0,0,0,0,0,0],"id":20,"left_children":[1,3,5,7,9,11,13,15,17,19,21,23,25,27,29,31,-1,33,-1,35,37,39,41,43,45,-1,-1,47,49,51,53,-1,-1,-1,55,57,-1,-1,-1,59,-1,-1,61,63,-1,65,67,-1,-1,-1,-1,69,71,73,75,-1,-1,-1,-1,-1,-1,-1,-1,-1,-1,-1,-1,-1,-1,-1,-1,-1,-1,-1,-1,-1,-1],"loss_changes":[7.302204E-4,2.722251E-4,3.2569488E-4,3.8020397E-4,4.31737E-4,1.4172432E-3,9.932239E-4,1.4496504E-4,2.3288658E-4,1.199625E-4,5.994245E-4,1.64096E-3,6.8422244E-4,4.4517108E-4,7.303624E-4,3.823221E-6,0E0,5.0153E-5,0E0,4.8171874E-5,3.5863077E-6,4.241544E-4,4.3204916E-4,2.129032E-4,2.2694864E-3,0E0,0E0,5.0484046E-5,1.4206243E-4,5.7721284E-4,1.4736537E-3,0E0,0E0,0E0,6.7822984E-5,5.6929675E-6,0E0,0E0,0E0,1.355276E-4,0E0,0E0,2.7627137E-4,2.2997725E-4,0E0,1.0192256E-4,2.0758854E-4,0E0,0E0,0E0,0E0,1.2885623E-4,4.4547184E-4,1.8161668E-3,6.024924E-4,0E0,0E0,0E0,0E0,0E0,0E0,0E0,0E0,0E0,0E0,0E0,0E0,0E0,0E0,0E0,0E0,0E0,0E0,0E0,0E0,0E0,0E0],"parents":[2147483647,0,0,1,1,2,2,3,3,4,4,5,5,6,6,7,7,8,8,9,9,10,10,11,11,12,12,13,13,14,14,15,15,17,17,19,19,20,20,21,21,22,22,23,23,24,24,27,27,28,28,29,29,30,30,34,34,35,35,39,39,42,42,43,43,45,45,46,46,51,51,52,52,53,53,54,54],"right_children":[2,4,6,8,10,12,14,16,18,20,22,24,26,28,30,32,-1,34,-1,36,38,40,42,44,46,-1,-1,48,50,52,54,-1,-1,-1,56,58,-1,-1,-1,60,-1,-1,62,64,-1,66,68,-1,-1,-1,-1,70,72,74,76,-1,-1,-1,-1,-1,-1,-1,-1,-1,-1,-1,-1,-1,-1,-1,-1,-1,-1,-1,-1,-1,-1],"split_conditions":[7.1664834E0,5.85194E-1,8.898877E0,-5.4662573E-1,2.0354142E0,2.8E1,8.930506E0,6.9656014E0,2.1E1,1.8E1,2.9191737E0,2E1,2.104099E1,8E0,9.02959E0,-6.9607544E-1,2.0338774E-3,7.882028E0,9.1853144E-4,1.2E1,1.0002878E0,7.0104985E0,6.958197E0,8.785124E0,8.644531E0,-6.3451296E-3,1.5263559E-3,8.174999E0,1.2E1,8.995413E0,9.0554E0,-1.2227655E-3,-2.0910503E-4,-5.2803755E-4,6.945415E0,1.7818648E0,2.9677034E-3,-3.7239792E-4,1.4972687E-4,9E0,-5.9099197E-3,-4.6738386E-3,2.3425587E1,8.545157E0,-2.0587922E-3,2.356281E1,2.5E1,-9.768248E-4,1.1572838E-3,-6.411076E-3,-9.88841E-4,1.2452807E1,2.3485106E1,7.3056946E0,9E0,-1.1383058E-3,-4.0237308E-3,1.1979998E-3,1.75488E-4,1.4384866E-3,-1.7900706E-3,-1.2426889E-4,-2.2119284E-3,-1.7736437E-3,1.134634E-3,5.533934E-4,-2.5053264E-3,9.272919E-3,3.6486448E-3,-1.6829253E-3,1.4315844E-3,7.647419E-3,1.6551018E-4,4.33209E-3,-6.866012E-3,-8.154461E-4,1.0422785E-3],"split_indices":[2,0,3,0,0,6,3,2,6,6,0,6,0,6,3,0,0,3,0,6,0,2,2,3,3,0,0,0,6,3,3,0,0,0,2,0,0,0,0,6,0,0,0,3,0,0,6,0,0,0,0,0,0,0,6,0,0,0,0,0,0,0,0,0,0,0,0,0,0,0,0,0,0,0,0,0,0],"split_type":[0,0,0,0,0,0,0,0,0,0,0,0,0,0,0,0,0,0,0,0,0,0,0,0,0,0,0,0,0,0,0,0,0,0,0,0,0,0,0,0,0,0,0,0,0,0,0,0,0,0,0,0,0,0,0,0,0,0,0,0,0,0,0,0,0,0,0,0,0,0,0,0,0,0,0,0,0],"sum_hessian":[2.84E2,1.54E2,1.3E2,1.3E1,1.41E2,3.1E1,9.9E1,4E0,9E0,1E1,1.31E2,2.8E1,3E0,5E0,9.4E1,2E0,2E0,8E0,1E0,7E0,3E0,5E0,1.26E2,1.8E1,1E1,2E0,1E0,2E0,3E0,6E0,8.8E1,1E0,1E0,1E0,7E0,4E0,3E0,1E0,2E0,3E0,2E0,1E0,1.25E2,1.6E1,2E0,3E0,7E0,1E0,1E0,2E0,1E0,3E0,3E0,5E0,8.3E1,2E0,5E0,3E0,1E0,1E0,2E0,1.2E2,5E0,2E0,1.4E1,1E0,2E0,4E0,3E0,1E0,2E0,2E0,1E0,1E0,4E0,2E1,6.3E1],"tree_param":{"num_deleted":"0","num_feature":"7","num_nodes":"77","size_leaf_vector":"1"}},{"base_weights":[1.2944038E-5,-1.5875781E-3,9.6960843E-4,-1.0635443E-3,-7.1755517E-3,6.3588494E-4,6.0086683E-3,-1.4690248E-3,6.8532946E-3,-2.7948888E-3,1.49256E-3,1.1091492E-3,-4.6830517E-3,1.0763134E-2,-1.8493176E-3,-3.0957966E-3,4.8691034E-4,-2.567768E-4,3.5036805E-3,3.0986352E-3,2.5513125E-5,-1.2524158E-2,4.9472195E-3,3.0883153E-3,1.3215398E-2,-1.3421953E-3,1.2974024E-3,-1.3341032E-3,-8.856933E-3,9.178847E-3,-1.4055871E-3,1.0327578E-3,-1.1483073E-3,-3.1796662E-4,9.588932E-3,-5.75691E-3,8.6046854E-4,-1.4835835E-3,-6.9581512E-3,-9.467125E-4,8.819533E-3,-6.72555E-4,2.062297E-3,5.241799E-3,1.3659E-3,-5.850256E-4,3.4957768E-3,7.0796016E-4,-3.8574222E-3,5.555749E-5,4.361401E-3,-1.6719819E-3,4.1207438E-4,1.74071E-3,-6.619248E-4,1.1195797E-3,6.497133E-3,-2.7288047E-3,2.521634E-3,2.4405639E-3,1.5458247E-5,4.4836997E-4,-1.1901617E-3,3.629923E-4,4.046774E-3],"categories":[],"categories_nodes":[],"categories_segments":[],"categories_sizes":[],"default_left":[0,0,0,0,0,0,0,0,0,0,0,0,0,0,0,0,0,0,0,0,0,0,0,0,0,0,0,0,0,0,0,0,0,0,0,0,0,0,0,0,0,0,0,0,0,0,0,0,0,0,0,0,0,0,0,0,0,0,0,0,0,0,0,0,0],"id":21,"left_children":[1,3,5,7,9,11,13,15,17,-1,-1,19,21,23,25,27,29,31,-1,33,35,37,39,41,43,-1,-1,45,47,49,51,-1,-1,53,55,57,59,61,-1,-1,63,-1,-1,-1,-1,-1,-1,-1,-1,-1,-1,-1,-1,-1,-1,-1,-1,-1,-1,-1,-1,-1,-1,-1,-1],"loss_changes":[4.379206E-4,3.056952E-4,2.9719505E-4,3.2786993E-4,2.8045522E-4,4.306116E-4,4.3087025E-4,3.0378407E-4,1.7455209E-4,0E0,0E0,3.3623804E-4,1.1191274E-3,9.0931484E-5,1.00371886E-4,5.1595026E-4,7.3667825E-4,5.28066E-5,0E0,1.2226608E-3,4.974163E-4,9.0798514E-4,2.4747138E-4,7.5951335E-5,1.0483764E-4,0E0,0E0,3.5070587E-4,5.689032E-4,3.8289482E-4,4.3621525E-4,0E0,0E0,4.4044617E-4,1.26216E-3,6.91221E-4,5.292163E-4,4.2912252E-5,0E0,0E0,1.6135068E-4,0E0,0E0,0E0,0E0,0E0,0E0,0E0,0E0,0E0,0E0,0E0,0E0,0E0,0E0,0E0,0E0,0E0,0E0,0E0,0E0,0E0,0E0,0E0,0E0],"parents":[2147483647,0,0,1,1,2,2,3,3,4,4,5,5,6,6,7,7,8,8,11,11,12,12,13,13,14,14,15,15,16,16,17,17,19,19,20,20,21,21,22,22,23,23,24,24,27,27,28,28,29,29,30,30,33,33,34,34,35,35,36,36,37,37,40,40],"right_children":[2,4,6,8,10,12,14,16,18,-1,-1,20,22,24,26,28,30,32,-1,34,36,38,40,42,44,-1,-1,46,48,50,52,-1,-1,54,56,58,60,62,-1,-1,64,-1,-1,-1,-1,-1,-1,-1,-1,-1,-1,-1,-1,-1,-1,-1,-1,-1,-1,-1,-1,-1,-1,-1,-1],"split_conditions":[7.0881867E0,8.777154E1,3E1,7.408993E1,1.0724688E2,2.8E1,2.0004124E1,1.7E1,1.5134866E1,-2.7948888E-3,1.49256E-3,8.8259535E0,1.2218779E2,9.225958E0,2.2729198E1,8.669838E0,1.9E1,1.5099222E1,3.5036805E-3,8.7233515E0,8.930506E0,1.1459489E1,7.1486263E0,9.316549E0,9.42276E0,-1.3421953E-3,1.2974024E-3,1.6E1,7E0,7.8959036E0,2.3E1,1.0327578E-3,-1.1483073E-3,1.1033217E2,2E1,1.7E1,9.02959E0,6.099932E0,-6.9581512E-3,-9.467125E-4,9.075428E0,-6.72555E-4,2.062297E-3,5.241799E-3,1.3659E-3,-5.850256E-4,3.4957768E-3,7.0796016E-4,-3.8574222E-3,5.555749E-5,4.361401E-3,-1.6719819E-3,4.1207438E-4,1.74071E-3,-6.619248E-4,1.1195797E-3,6.497133E-3,-2.7288047E-3,2.521634E-3,2.4405639E-3,1.5458247E-5,4.4836997E-4,-1.1901617E-3,3.629923E-4,4.046774E-3],"split_indices":[2,1,6,1,1,6,0,6,0,0,0,3,1,3,0,3,6,0,0,3,3,0,2,0,3,0,0,6,6,3,6,0,0,1,6,6,3,0,0,0,3,0,0,0,0,0,0,0,0,0,0,0,0,0,0,0,0,0,0,0,0,0,0,0,0],"split_type":[0,0,0,0,0,0,0,0,0,0,0,0,0,0,0,0,0,0,0,0,0,0,0,0,0,0,0,0,0,0,0,0,0,0,0,0,0,0,0,0,0,0,0,0,0,0,0,0,0,0,0,0,0,0,0,0,0,0,0,0,0,0,0,0,0],"sum_hessian":[2.84E2,1.06E2,1.78E2,9.8E1,8E0,1.68E2,1E1,9.4E1,4E0,7E0,1E0,1.55E2,1.3E1,6E0,4E0,5.1E1,4.3E1,2E0,2E0,5.4E1,1.01E2,7E0,6E0,2E0,4E0,3E0,1E0,4E1,1.1E1,7E0,3.6E1,1E0,1E0,3.6E1,1.8E1,1.2E1,8.9E1,4E0,3E0,2E0,4E0,1E0,1E0,2E0,2E0,3.9E1,1E0,3E0,8E0,3E0,4E0,1.4E1,2.2E1,8E0,2.8E1,1.3E1,5E0,1E1,2E0,8E0,8.1E1,2E0,2E0,2E0,2E0],"tree_param":{"num_deleted":"0","num_feature":"7","num_nodes":"65","size_leaf_vector":"1"}},{"base_weights":[7.811011E-5,-4.8051376E-4,1.9762295E-3,-1.2540538E-3,1.6160528E-3,3.9828222E-4,1.7426332E-2,-4.047247E-4,-7.264054E-3,7.3973793E-3,8.366947E-4,8.705616E-3,-1.0471848E-3,1.3208389E-3,7.544661E-3,-7.0728647E-4,4.185176E-3,3.8626988E-3,-1.1230485E-2,-2.8429627E-3,4.736513E-3,-1.7098486E-3,2.7812219E-3,1.7309189E-4,1.2943029E-2,-9.422983E-3,2.501581E-4,1.6726257E-3,-1.078248E-3,-3.89251E-4,-6.739787E-3,-1.7851115E-3,1.0256827E-2,-1.636228E-2,-4.694879E-3,2.4018288E-4,-1.297307E-3,2.3339877E-3,-4.7650165E-3,4.4646603E-3,-6.854534E-4,5.259991E-4,-2.814293E-4,1.9454958E-4,4.5816707E-3,7.536888E-4,-4.4098664E-3,8.684211E-4,-4.135752E-3,-2.191261E-4,1.7860855E-3,-3.0636692E-3,3.8826469E-4,3.6843303E-3,6.2760117E-4,-1.2252689E-3,-5.2598477E-3,1.2668753E-3,-4.4005215E-3,2.4267606E-4,1.2006856E-3,-1.7959714E-3,5.128622E-4,1.1875392E-4,2.2449852E-3,-1.6101837E-3,1.8018581E-3,2.8762044E-3,5.211149E-6],"categories":[],"categories_nodes":[],"categories_segments":[],"categories_sizes":[],"default_left":[0,0,0,0,0,0,0,0,0,0,0,0,0,0,0,0,0,0,0,0,0,0,0,0,0,0,0,0,0,0,0,0,0,0,0,0,0,0,0,0,0,0,0,0,0,0,0,0,0,0,0,0,0,0,0,0,0,0,0,0,0,0,0,0,0,0,0,0,0],"id":22,"left_children":[1,3,5,7,9,11,13,15,17,19,21,23,25,27,-1,29,-1,31,33,35,-1,37,39,41,43,45,47,-1,-1,49,51,-1,53,55,57,-1,-1,59,61,63,65,-1,-1,-1,-1,-1,-1,67,-1,-1,-1,-1,-1,-1,-1,-1,-1,-1,-1,-1,-1,-1,-1,-1,-1,-1,-1,-1,-1],"loss_changes":[3.0314503E-4,3.604396E-4,1.5777237E-3,8.239838E-4,2.6415405E-4,7.29595E-4,7.1303383E-4,6.3096866E-4,9.260499E-4,6.4637244E-4,2.721539E-4,3.2316218E-4,5.67404E-4,8.277271E-5,0E0,2.6789194E-4,0E0,4.3750808E-4,4.2627193E-4,2.5052384E-5,0E0,3.0763185E-4,1.839743E-4,8.668572E-6,1.6191497E-4,4.777711E-4,4.111571E-4,0E0,0E0,2.964876E-4,2.0850019E-4,0E0,4.0419196E-5,4.33682E-5,7.734785E-4,0E0,0E0,2.4749399E-5,1.2096067E-4,2.549643E-4,3.7685724E-4,0E0,0E0,0E0,0E0,0E0,0E0,3.337446E-4,0E0,0E0,0E0,0E0,0E0,0E0,0E0,0E0,0E0,0E0,0E0,0E0,0E0,0E0,0E0,0E0,0E0,0E0,0E0,0E0,0E0],"parents":[2147483647,0,0,1,1,2,2,3,3,4,4,5,5,6,6,7,7,8,8,9,9,10,10,11,11,12,12,13,13,15,15,17,17,18,18,19,19,21,21,22,22,23,23,24,24,25,25,26,26,29,29,30,30,32,32,33,33,34,34,37,37,38,38,39,39,40,40,47,47],"right_children":[2,4,6,8,10,12,14,16,18,20,22,24,26,28,-1,30,-1,32,34,36,-1,38,40,42,44,46,48,-1,-1,50,52,-1,54,56,58,-1,-1,60,62,64,66,-1,-1,-1,-1,-1,-1,68,-1,-1,-1,-1,-1,-1,-1,-1,-1,-1,-1,-1,-1,-1,-1,-1,-1,-1,-1,-1,-1],"split_conditions":[7.2832417E0,1.6559431E2,9.9992035E1,9.037568E0,2.188027E1,6E0,7.2873626E0,2.2195433E1,1.1291414E2,2.104099E1,7.187088E0,5.0187515E1,8.90667E0,1.4146401E1,7.544661E-3,1.2218779E2,4.185176E-3,1.8410809E1,1.2761993E2,2.0144974E2,4.736513E-3,2.3425587E1,2.5562891E1,4.821593E0,7.318956E0,8.778698E0,9.747361E1,1.6726257E-3,-1.078248E-3,7.128022E0,1.4276886E2,-1.7851115E-3,2.0004124E1,7.1335163E0,1.5913077E2,2.4018288E-4,-1.297307E-3,1.2E1,9.222297E0,8.930506E0,2.6264227E1,5.259991E-4,-2.814293E-4,1.9454958E-4,4.5816707E-3,7.536888E-4,-4.4098664E-3,7.296978E0,-4.135752E-3,-2.191261E-4,1.7860855E-3,-3.0636692E-3,3.8826469E-4,3.6843303E-3,6.2760117E-4,-1.2252689E-3,-5.2598477E-3,1.2668753E-3,-4.4005215E-3,2.4267606E-4,1.2006856E-3,-1.7959714E-3,5.128622E-4,1.1875392E-4,2.2449852E-3,-1.6101837E-3,1.8018581E-3,2.8762044E-3,5.211149E-6],"split_indices":[2,1,1,3,0,6,2,0,1,0,2,1,3,0,0,1,0,0,1,1,0,0,0,0,2,3,1,0,0,2,1,0,0,2,1,0,0,6,3,3,0,0,0,0,0,0,0,2,0,0,0,0,0,0,0,0,0,0,0,0,0,0,0,0,0,0,0,0,0],"split_type":[0,0,0,0,0,0,0,0,0,0,0,0,0,0,0,0,0,0,0,0,0,0,0,0,0,0,0,0,0,0,0,0,0,0,0,0,0,0,0,0,0,0,0,0,0,0,0,0,0,0,0,0,0,0,0,0,0,0,0,0,0,0,0,0,0,0,0,0,0],"sum_hessian":[2.84E2,2.2E2,6.4E1,1.61E2,5.9E1,5.9E1,5E0,1.42E2,1.9E1,6E0,5.3E1,8E0,5.1E1,2E0,3E0,1.4E2,2E0,5E0,1.4E1,3E0,3E0,2.3E1,3E1,3E0,5E0,6E0,4.5E1,1E0,1E0,1.34E2,6E0,2E0,3E0,7E0,7E0,1E0,2E0,1E1,1.3E1,2E1,1E1,1E0,2E0,1E0,4E0,2E0,4E0,4.4E1,1E0,1.28E2,6E0,4E0,2E0,2E0,1E0,1E0,6E0,4E0,3E0,6E0,4E0,1.1E1,2E0,9E0,1.1E1,6E0,4E0,3E0,4.1E1],"tree_param":{"num_deleted":"0","num_feature":"7","num_nodes":"69","size_leaf_vector":"1"}},{"base_weights":[9.195846E-5,-1.2859031E-4,4.070409E-3,-1.38858E-3,5.484018E-4,5.469203E-3,-1.1435747E-3,-7.0903066E-4,-1.3478661E-2,5.241206E-3,-1.5822596E-5,4.8589706E-4,7.0763165E-3,-9.2954637E-4,7.081747E-4,7.1591856E-3,-1.1530772E-3,-4.514462E-3,-1.080072E-3,9.310579E-3,6.4771174E-4,-3.8563411E-3,4.711151E-4,5.6290627E-4,-5.528212E-4,8.201361E-3,-2.886057E-4,1.0797977E-3,3.2556534E-3,-1.5889639E-3,4.99622E-3,1.3508797E-2,4.2603016E-3,-2.1153213E-3,3.4537911E-3,3.6993981E-3,-6.2793666E-3,6.884942E-3,-1.738915E-4,9.101595E-3,2.849579E-4,-5.711317E-5,5.430222E-4,-9.164762E-5,-1.0175818E-3,-9.3345647E-4,2.9483915E-3,1.0091544E-3,4.5612217E-3,-7.754803E-4,3.5901547E-3,1.7779649E-3,2.354479E-4,2.407217E-3,-5.5751804E-4,-2.4798154E-3,1.1281491E-3,7.0532964E-4,4.1006613E-3,-2.3545912E-3,7.82288E-5,3.2200816E-4,3.0782225E-3],"categories":[],"categories_nodes":[],"categories_segments":[],"categories_sizes":[],"default_left":[0,0,0,0,0,0,0,0,0,0,0,0,0,0,0,0,0,0,0,0,0,0,0,0,0,0,0,0,0,0,0,0,0,0,0,0,0,0,0,0,0,0,0,0,0,0,0,0,0,0,0,0,0,0,0,0,0,0,0,0,0,0,0],"id":23,"left_children":[1,3,5,7,9,11,13,15,17,19,21,23,25,-1,-1,27,29,-1,-1,31,33,35,37,-1,-1,39,-1,41,-1,43,45,47,49,-1,51,53,55,57,59,61,-1,-1,-1,-1,-1,-1,-1,-1,-1,-1,-1,-1,-1,-1,-1,-1,-1,-1,-1,-1,-1,-1,-1],"loss_changes":[2.5059452E-4,2.3192531E-4,1.1565379E-4,7.7094464E-4,4.6874257E-4,9.266648E-5,3.4715526E-5,3.2619582E-4,2.3346045E-5,3.4912967E-4,2.991616E-4,1.6409092E-5,8.928124E-5,0E0,0E0,1.0053752E-4,2.4113333E-4,0E0,0E0,1.544701E-4,2.4038686E-4,3.5276933E-4,5.886457E-4,0E0,0E0,4.3579086E-5,0E0,3.1273323E-6,0E0,1.8871737E-4,2.6562746E-4,3.4848228E-5,3.4746685E-4,0E0,4.814633E-5,1.3508962E-4,3.1032908E-4,3.6770751E-4,4.3570844E-4,5.4127828E-5,0E0,0E0,0E0,0E0,0E0,0E0,0E0,0E0,0E0,0E0,0E0,0E0,0E0,0E0,0E0,0E0,0E0,0E0,0E0,0E0,0E0,0E0,0E0],"parents":[2147483647,0,0,1,1,2,2,3,3,4,4,5,5,6,6,7,7,8,8,9,9,10,10,11,11,12,12,15,15,16,16,19,19,20,20,21,21,22,22,25,25,27,27,29,29,30,30,31,31,32,32,34,34,35,35,36,36,37,37,38,38,39,39],"right_children":[2,4,6,8,10,12,14,16,18,20,22,24,26,-1,-1,28,30,-1,-1,32,34,36,38,-1,-1,40,-1,42,-1,44,46,48,50,-1,52,54,56,58,60,62,-1,-1,-1,-1,-1,-1,-1,-1,-1,-1,-1,-1,-1,-1,-1,-1,-1,-1,-1,-1,-1,-1,-1],"split_conditions":[7.3725276E0,6.033778E1,4.238002E1,5.6855194E1,7.032492E1,3.284914E1,5.5747104E0,2E0,5.980671E1,1.3548349E1,1.5048733E1,3.1432156E1,9.617729E0,-9.2954637E-4,7.081747E-4,2.8104254E1,1.2268902E1,-4.514462E-3,-1.080072E-3,9.101278E0,7.0526137E0,1E1,1.6257158E1,5.6290627E-4,-5.528212E-4,6.3674717E0,-2.886057E-4,-5.4662573E-1,3.2556534E-3,7.031868E0,3.8734047E1,9.5636015E0,9.694776E0,-2.1153213E-3,2.5E1,7.3244505E0,2.9E1,1.5475767E1,7.082692E0,9.208734E0,2.849579E-4,-5.711317E-5,5.430222E-4,-9.164762E-5,-1.0175818E-3,-9.3345647E-4,2.9483915E-3,1.0091544E-3,4.5612217E-3,-7.754803E-4,3.5901547E-3,1.7779649E-3,2.354479E-4,2.407217E-3,-5.5751804E-4,-2.4798154E-3,1.1281491E-3,7.0532964E-4,4.1006613E-3,-2.3545912E-3,7.82288E-5,3.2200816E-4,3.0782225E-3],"split_indices":[2,1,1,1,1,1,0,6,1,0,0,1,3,0,0,1,0,0,0,3,2,6,0,0,0,0,0,0,0,2,1,0,3,0,6,2,6,0,2,3,0,0,0,0,0,0,0,0,0,0,0,0,0,0,0,0,0,0,0,0,0,0,0],"split_type":[0,0,0,0,0,0,0,0,0,0,0,0,0,0,0,0,0,0,0,0,0,0,0,0,0,0,0,0,0,0,0,0,0,0,0,0,0,0,0,0,0,0,0,0,0,0,0,0,0,0,0,0,0,0,0,0,0,0,0,0,0,0,0],"sum_hessian":[2.84E2,2.7E2,1.4E1,9.4E1,1.76E2,1.1E1,3E0,9E1,4E0,1.8E1,1.58E2,3E0,8E0,2E0,1E0,4E0,8.6E1,3E0,1E0,9E0,9E0,1.7E1,1.41E2,2E0,1E0,7E0,1E0,2E0,2E0,8.1E1,5E0,4E0,5E0,2E0,7E0,4E0,1.3E1,1.2E1,1.29E2,6E0,1E0,1E0,1E0,4.8E1,3.3E1,2E0,3E0,1E0,3E0,3E0,2E0,3E0,4E0,2E0,2E0,1.1E1,2E0,8E0,4E0,6E0,1.23E2,1E0,5E0],"tree_param":{"num_deleted":"0","num_feature":"7","num_nodes":"63","size_leaf_vector":"1"}},{"base_weights":[1.11904475E-4,-3.5430272E-3,3.1379404E-4,1.5435696E-3,-5.5330233E-3,6.1488803E-3,6.6668596E-5,-2.1189053E-3,1.4074564E-3,-9.085894E-3,-1.0579824E-3,6.57475E-3,2.835274E-4,-3.8383843E-3,1.6534512E-4,-9.049774E-4,-4.8530103E-5,-7.315159E-4,-3.5400153E-3,-5.0538382E-3,2.203405E-3,5.4455997E-4,2.0705701E-3,-5.213946E-3,3.3478774E-4,-1.8636704E-3,-4.1055682E-4,1.1025191E-3,-3.3173562E-4,-2.1357196E-3,-4.01423E-3,5.5370927E-3,1.6424617E-4,4.5084002E-4,-2.2464038E-3,7.199049E-5,1.8778631E-3,-1.3349772E-3,1.1974934E-4],"categories":[],"categories_nodes":[],"categories_segments":[],"categories_sizes":[],"default_left":[0,0,0,0,0,0,0,0,0,0,0,0,0,0,0,0,0,0,0,0,0,0,0,0,0,0,0,0,0,0,0,0,0,0,0,0,0,0,0],"id":24,"left_children":[1,3,5,7,9,11,13,15,-1,17,19,21,-1,-1,23,-1,-1,-1,-1,25,27,-1,-1,29,31,-1,-1,-1,-1,33,-1,35,37,-1,-1,-1,-1,-1,-1],"loss_changes":[2.1141117E-4,1.6037523E-4,3.9037157E-4,6.758736E-5,1.6527888E-4,1.8163788E-5,3.3335236E-4,4.7827007E-6,0E0,7.9481164E-5,8.932785E-5,3.0425435E-6,0E0,0E0,2.3873069E-4,0E0,0E0,0E0,0E0,4.3055843E-6,2.3543826E-5,0E0,0E0,1.7253702E-4,2.2355448E-4,0E0,0E0,0E0,0E0,1.4757394E-4,0E0,2.9113202E-5,2.6842867E-4,0E0,0E0,0E0,0E0,0E0,0E0],"parents":[2147483647,0,0,1,1,2,2,3,3,4,4,5,5,6,6,7,7,9,9,10,10,11,11,14,14,19,19,20,20,23,23,24,24,29,29,31,31,32,32],"right_children":[2,4,6,8,10,12,14,16,-1,18,20,22,-1,-1,24,-1,-1,-1,-1,26,28,-1,-1,30,32,-1,-1,-1,-1,34,-1,36,38,-1,-1,-1,-1,-1,-1],"split_conditions":[1.0002878E0,-5.4662573E-1,2.0354142E0,6.9656014E0,1.6E1,3.7572105E1,6.958197E0,-6.9607544E-1,1.4074564E-3,6.945415E0,6.9846387E0,7.755759E0,2.835274E-4,-3.8383843E-3,2.9191737E0,-9.049774E-4,-4.8530103E-5,-7.315159E-4,-3.5400153E-3,6.7944E-2,3.9657828E-1,5.4455997E-4,2.0705701E-3,3.9084587E1,3.8235703E0,-1.8636704E-3,-4.1055682E-4,1.1025191E-3,-3.3173562E-4,2.6638775E0,-4.01423E-3,2E0,4.6287503E0,4.5084002E-4,-2.2464038E-3,7.199049E-5,1.8778631E-3,-1.3349772E-3,1.1974934E-4],"split_indices":[0,0,0,2,6,1,2,0,0,2,2,3,0,0,0,0,0,0,0,0,0,0,0,1,0,0,0,0,0,0,0,5,0,0,0,0,0,0,0],"split_type":[0,0,0,0,0,0,0,0,0,0,0,0,0,0,0,0,0,0,0,0,0,0,0,0,0,0,0,0,0,0,0,0,0,0,0,0,0,0,0],"sum_hessian":[2.84E2,1.4E1,2.7E2,4E0,1E1,1E1,2.6E2,2E0,2E0,5E0,5E0,9E0,1E0,1E0,2.59E2,1E0,1E0,2E0,3E0,2E0,3E0,1E0,8E0,7E0,2.52E2,1E0,1E0,2E0,1E0,6E0,1E0,7E0,2.45E2,4E0,2E0,1E0,6E0,1.1E1,2.34E2],"tree_param":{"num_deleted":"0","num_feature":"7","num_nodes":"39","size_leaf_vector":"1"}},{"base_weights":[3.86121E-5,-1.5920783E-4,2.5330726E-3,-2.7068343E-3,5.9809976E-5,9.746211E-4,4.9437284E-3,-3.2876432E-4,-8.597215E-3,4.071646E-4,-2.3511918E-3,3.6497712E-3,-2.221925E-3,7.457161E-3,5.660057E-4,2.3631752E-3,-2.68507E-3,1.9979477E-3,-4.3182853E-3,-1.3989506E-4,8.271371E-3,-1.0305107E-2,-1.130947E-3,5.337E-4,5.412674E-3,5.8178906E-4,-3.238678E-3,3.6530972E-3,2.5161108E-4,-1.6293526E-4,5.840063E-4,-3.1642916E-4,3.0021328E-3,-2.0346523E-3,-1.3251603E-3,4.1627885E-5,8.574486E-4,-4.4236358E-4,3.953423E-3,7.6270103E-4,1.23581095E-2,-9.4621186E-4,-3.491235E-3,3.1780174E-3,-5.077251E-3,3.932476E-4,-2.696514E-4,6.4222813E-3,2.0613671E-4,-4.4775012E-4,-1.3462068E-3,-1.1100769E-4,2.2423269E-4,-4.1234496E-5,1.0644913E-3,-6.0073135E-4,1.4133455E-4,1.3199213E-4,-1.0080198E-3,-8.768893E-4,2.0988823E-3,6.4655545E-4,-4.0445328E-4,5.4349992E-3,1.2383796E-3,1.0391951E-4,2.4616958E-3,2.23732E-4,-1.8091404E-3,2.3064138E-3,3.937483E-4],"categories":[],"categories_nodes":[],"categories_segments":[],"categories_sizes":[],"default_left":[0,0,0,0,0,0,0,0,0,0,0,0,0,0,0,0,0,0,0,0,0,0,0,0,0,0,0,0,0,0,0,0,0,0,0,0,0,0,0,0,0,0,0,0,0,0,0,0,0,0,0,0,0,0,0,0,0,0,0,0,0,0,0,0,0,0,0,0,0,0,0],"id":25,"left_children":[1,3,5,7,9,11,13,15,17,19,21,23,25,27,29,31,33,35,-1,37,39,41,43,45,47,-1,49,-1,51,-1,-1,-1,53,-1,55,-1,-1,57,59,61,63,-1,-1,65,67,-1,-1,69,-1,-1,-1,-1,-1,-1,-1,-1,-1,-1,-1,-1,-1,-1,-1,-1,-1,-1,-1,-1,-1,-1,-1],"loss_changes":[1.4103767E-4,1.4802541E-4,7.407644E-5,2.9133604E-4,2.0613811E-4,1.2782688E-4,8.380407E-5,1.078338E-4,3.9728434E-4,9.26128E-4,2.8922287E-4,4.10579E-5,3.5897305E-5,1.6698099E-4,7.182666E-6,2.0637883E-5,4.1157764E-5,4.4013022E-6,0E0,2.5184505E-4,4.20178E-4,1.405715E-6,4.9226114E-4,5.631266E-6,1.9441868E-5,0E0,6.3850966E-6,0E0,1.2012533E-6,0E0,0E0,0E0,1.2490957E-5,0E0,1.0675995E-5,0E0,0E0,4.8803946E-4,3.133834E-4,2.0541756E-5,3.51761E-4,0E0,0E0,1.9646641E-4,8.775646E-5,0E0,0E0,1.578062E-5,0E0,0E0,0E0,0E0,0E0,0E0,0E0,0E0,0E0,0E0,0E0,0E0,0E0,0E0,0E0,0E0,0E0,0E0,0E0,0E0,0E0,0E0,0E0],"parents":[2147483647,0,0,1,1,2,2,3,3,4,4,5,5,6,6,7,7,8,8,9,9,10,10,11,11,12,12,13,13,14,14,15,15,16,16,17,17,19,19,20,20,21,21,22,22,23,23,24,24,26,26,28,28,32,32,34,34,37,37,38,38,39,39,40,40,43,43,44,44,47,47],"right_children":[2,4,6,8,10,12,14,16,18,20,22,24,26,28,30,32,34,36,-1,38,40,42,44,46,48,-1,50,-1,52,-1,-1,-1,54,-1,56,-1,-1,58,60,62,64,-1,-1,66,68,-1,-1,70,-1,-1,-1,-1,-1,-1,-1,-1,-1,-1,-1,-1,-1,-1,-1,-1,-1,-1,-1,-1,-1,-1,-1],"split_conditions":[7.3587914E0,3E0,5.718713E0,7.2351646E0,9.324026E0,3.9084587E1,7.3056946E0,2E0,1.5368993E1,9.239281E0,9.411452E0,3.284914E1,7.365659E0,9.414067E0,5.210112E1,7.8580627E0,5.85194E-1,1.5349897E1,-4.3182853E-3,2.5004997E1,9.595505E1,1.7907293E1,1.9E1,3.1432156E1,3.7572105E1,5.8178906E-4,4.3659515E1,3.6530972E-3,6.7703376E0,-1.6293526E-4,5.840063E-4,-3.1642916E-4,6.952946E0,-2.0346523E-3,8.785124E0,4.1627885E-5,8.574486E-4,8.878845E0,8.780943E0,9.283387E0,2.188027E1,-9.4621186E-4,-3.491235E-3,9.58294E0,8.174999E0,3.932476E-4,-2.696514E-4,9.42276E0,2.0613671E-4,-4.4775012E-4,-1.3462068E-3,-1.1100769E-4,2.2423269E-4,-4.1234496E-5,1.0644913E-3,-6.0073135E-4,1.4133455E-4,1.3199213E-4,-1.0080198E-3,-8.768893E-4,2.0988823E-3,6.4655545E-4,-4.0445328E-4,5.4349992E-3,1.2383796E-3,1.0391951E-4,2.4616958E-3,2.23732E-4,-1.8091404E-3,2.3064138E-3,3.937483E-4],"split_indices":[2,6,0,2,3,1,0,6,0,3,3,1,2,3,1,3,0,0,0,0,1,0,6,1,1,0,1,0,0,0,0,0,2,0,3,0,0,3,3,3,0,0,0,3,0,0,0,3,0,0,0,0,0,0,0,0,0,0,0,0,0,0,0,0,0,0,0,0,0,0,0],"split_type":[0,0,0,0,0,0,0,0,0,0,0,0,0,0,0,0,0,0,0,0,0,0,0,0,0,0,0,0,0,0,0,0,0,0,0,0,0,0,0,0,0,0,0,0,0,0,0,0,0,0,0,0,0,0,0,0,0,0,0,0,0,0,0,0,0,0,0,0,0,0,0],"sum_hessian":[2.84E2,2.64E2,2E1,2E1,2.44E2,1.3E1,7E0,1.5E1,5E0,2.14E2,3E1,7E0,6E0,4E0,3E0,7E0,8E0,2E0,3E0,2.01E2,1.3E1,3E0,2.7E1,3E0,4E0,1E0,5E0,2E0,2E0,2E0,1E0,1E0,6E0,1E0,7E0,1E0,1E0,1.88E2,1.3E1,5E0,8E0,1E0,2E0,1.3E1,1.4E1,2E0,1E0,3E0,1E0,3E0,2E0,1E0,1E0,1E0,5E0,5E0,2E0,1.45E2,4.3E1,4E0,9E0,3E0,2E0,4E0,4E0,9E0,4E0,2E0,1.2E1,2E0,1E0],"tree_param":{"num_deleted":"0","num_feature":"7","num_nodes":"71","size_leaf_vector":"1"}},{"base_weights":[4.31295E-5,-3.4443464E-4,1.2613656E-3,-1.9411264E-4,-3.30081E-3,7.405071E-4,5.501962E-3,-8.712128E-5,-7.7257953E-3,4.6509304E-3,-9.573133E-5,-2.0009195E-4,2.366257E-3,-2.7577758E-3,-7.18832E-4,7.745703E-3,1.3338497E-3,-4.9569607E-3,5.733733E-4,5.5057833E-5,-3.7943465E-3,6.7090994E-5,2.7616168E-3,-9.4056135E-4,2.601226E-3,1.3188838E-3,-4.129315E-3,-6.250143E-4,7.0928335E-3,-4.4066377E-4,1.86664E-4,-2.6473603E-3,1.3149977E-3,2.1779539E-4,1.2703419E-3,1.5179873E-3,-8.585453E-4,-1.3927079E-3,4.2134765E-4,2.3595677E-3,2.5291444E-4],"categories":[],"categories_nodes":[],"categories_segments":[],"categories_sizes":[],"default_left":[0,0,0,0,0,0,0,0,0,0,0,0,0,0,0,0,0,0,0,0,0,0,0,0,0,0,0,0,0,0,0,0,0,0,0,0,0,0,0,0,0],"id":26,"left_children":[1,3,5,7,-1,9,-1,11,13,15,17,19,-1,-1,-1,21,23,25,27,29,31,-1,-1,-1,33,35,-1,37,39,-1,-1,-1,-1,-1,-1,-1,-1,-1,-1,-1,-1],"loss_changes":[1.3499569E-4,3.455355E-4,6.002077E-4,1.7257927E-4,0E0,2.2280839E-4,0E0,1.934701E-4,1.4262041E-6,1.1285572E-4,1.8824445E-4,1.9371137E-4,0E0,0E0,0E0,6.382048E-5,4.780319E-5,4.0507165E-4,4.02888E-4,1.7204718E-4,6.1457395E-4,0E0,0E0,0E0,1.5302237E-5,9.268224E-5,0E0,3.6526218E-4,3.1987467E-5,0E0,0E0,0E0,0E0,0E0,0E0,0E0,0E0,0E0,0E0,0E0,0E0],"parents":[2147483647,0,0,1,1,2,2,3,3,5,5,7,7,8,8,9,9,10,10,11,11,15,15,16,16,17,17,18,18,19,19,20,20,24,24,25,25,27,27,28,28],"right_children":[2,4,6,8,-1,10,-1,12,14,16,18,20,-1,-1,-1,22,24,26,28,30,32,-1,-1,-1,34,36,-1,38,40,-1,-1,-1,-1,-1,-1,-1,-1,-1,-1,-1,-1],"split_conditions":[7.277747E0,7.275E0,1.1558294E2,9.572306E0,-3.30081E-3,6E0,5.501962E-3,7.2708793E0,2.1328428E1,9.101278E0,7.292857E0,7.248901E0,2.366257E-3,-2.7577758E-3,-7.18832E-4,4.245976E1,9.121682E0,7.2873626E0,8.771639E1,3.802098E1,2.2707449E1,6.7090994E-5,2.7616168E-3,-9.4056135E-4,1.5349897E1,1.0353063E2,-4.129315E-3,7.3381867E0,1.8933157E1,-4.4066377E-4,1.86664E-4,-2.6473603E-3,1.3149977E-3,2.1779539E-4,1.2703419E-3,1.5179873E-3,-8.585453E-4,-1.3927079E-3,4.2134765E-4,2.3595677E-3,2.5291444E-4],"split_indices":[2,2,1,3,0,6,0,2,0,3,2,2,0,0,0,1,3,2,1,1,0,0,0,0,0,1,0,2,0,0,0,0,0,0,0,0,0,0,0,0,0],"split_type":[0,0,0,0,0,0,0,0,0,0,0,0,0,0,0,0,0,0,0,0,0,0,0,0,0,0,0,0,0,0,0,0,0,0,0,0,0,0,0,0,0],"sum_hessian":[2.84E2,2.16E2,6.8E1,2.14E2,2E0,6.7E1,1E0,2.12E2,2E0,1.1E1,5.6E1,2.1E2,2E0,1E0,1E0,5E0,6E0,6E0,5E1,1.97E2,1.3E1,1E0,4E0,1E0,5E0,4E0,2E0,4.3E1,7E0,5.3E1,1.44E2,8E0,5E0,3E0,2E0,2E0,2E0,1.4E1,2.9E1,6E0,1E0],"tree_param":{"num_deleted":"0","num_feature":"7","num_nodes":"41","size_leaf_vector":"1"}},{"base_weights":[3.3878026E-5,-5.7828194E-4,7.378374E-4,1.8041031E-4,-2.8006237E-3,5.675206E-3,2.0127848E-4,-3.9907134E-4,3.3253431E-3,-3.6722752E-3,5.7443976E-3,9.205401E-3,2.2411346E-5,4.2823007E-4,-6.544113E-3,8.6880784E-4,-3.1673524E-3,1.1810005E-2,8.410772E-4,-2.1320581E-3,-8.056032E-3,2.3270608E-3,-4.3952467E-5,-3.0269625E-4,1.0808741E-2,-1.2660743E-3,1.7149926E-3,-1.635783E-4,4.211232E-3,-2.5452138E-3,-1.0864735E-4,-1.4424771E-3,2.8442757E-3,-4.5060874E-3,-1.8319673E-3,4.6766996E-3,1.6062022E-3,-1.5890598E-3,4.751126E-3,-7.5588943E-3,8.3638495E-4,-1.0269539E-2,-2.058347E-4,1.2872617E-2,-2.3617745E-4,2.5384428E-4,7.785559E-4,8.76984E-4,-3.6253035E-3,3.3651353E-3,2.9963653E-3,1.5781097E-4,-3.6532977E-3,1.8767811E-3,4.5727324E-4,-1.8329805E-4,-2.7930916E-3,7.635713E-4,-1.117352E-3,3.1213762E-4,2.4344923E-3,8.5349684E-4,-3.7272386E-3,2.5730075E-3,-3.452897E-4,-1.0328293E-4,-3.5599114E-3,5.183816E-4,-6.110072E-4,4.501319E-3,1.7218114E-3,-8.26342E-5,2.6914645E-3,-1.6878982E-3,9.946466E-4,8.01015E-5,2.1137714E-3],"categories":[],"categories_nodes":[],"categories_segments":[],"categories_sizes":[],"default_left":[0,0,0,0,0,0,0,0,0,0,0,0,0,0,0,0,0,0,0,0,0,0,0,0,0,0,0,0,0,0,0,0,0,0,0,0,0,0,0,0,0,0,0,0,0,0,0,0,0,0,0,0,0,0,0,0,0,0,0,0,0,0,0,0,0,0,0,0,0,0,0,0,0,0,0,0,0],"id":27,"left_children":[1,3,5,7,9,11,13,15,17,19,21,23,25,27,29,31,33,35,37,39,41,-1,-1,-1,43,-1,45,47,49,-1,-1,51,53,-1,55,-1,-1,57,59,61,63,65,67,69,-1,-1,-1,71,73,-1,75,-1,-1,-1,-1,-1,-1,-1,-1,-1,-1,-1,-1,-1,-1,-1,-1,-1,-1,-1,-1,-1,-1,-1,-1,-1,-1],"loss_changes":[1.2324336E-4,2.5847447E-4,3.5119985E-4,2.109066E-4,3.11578E-4,2.5921475E-4,1.8803855E-4,3.4671673E-4,3.6947365E-4,2.258938E-4,4.8557573E-5,1.4192297E-4,5.0323957E-5,2.648687E-4,4.4897737E-5,3.1458188E-4,4.6315868E-4,1.4125137E-5,1.5007913E-4,4.5738128E-4,1.5427446E-4,0E0,0E0,0E0,1.77663E-4,0E0,1.62785E-6,3.7419985E-4,1.0256888E-4,0E0,0E0,6.826411E-4,1.5709398E-4,0E0,2.5910622E-4,0E0,0E0,9.7765485E-5,6.6449415E-5,5.415197E-4,3.0214284E-4,1.06857566E-4,1.4140658E-5,5.123322E-6,0E0,0E0,0E0,7.4874563E-4,3.5198257E-4,0E0,1.6390852E-4,0E0,0E0,0E0,0E0,0E0,0E0,0E0,0E0,0E0,0E0,0E0,0E0,0E0,0E0,0E0,0E0,0E0,0E0,0E0,0E0,0E0,0E0,0E0,0E0,0E0,0E0],"parents":[2147483647,0,0,1,1,2,2,3,3,4,4,5,5,6,6,7,7,8,8,9,9,10,10,11,11,12,12,13,13,14,14,15,15,16,16,17,17,18,18,19,19,20,20,24,24,26,26,27,27,28,28,31,31,32,32,34,34,37,37,38,38,39,39,40,40,41,41,42,42,43,43,47,47,48,48,50,50],"right_children":[2,4,6,8,10,12,14,16,18,20,22,24,26,28,30,32,34,36,38,40,42,-1,-1,-1,44,-1,46,48,50,-1,-1,52,54,-1,56,-1,-1,58,60,62,64,66,68,70,-1,-1,-1,72,74,-1,76,-1,-1,-1,-1,-1,-1,-1,-1,-1,-1,-1,-1,-1,-1,-1,-1,-1,-1,-1,-1,-1,-1,-1,-1,-1,-1],"split_conditions":[1.7E1,1.3E1,1.8E1,9.287948E0,2.6167038E2,8.780943E0,2.9430884E2,8.878845E0,9.3483305E0,2.1016573E1,2.4185524E1,1.3976772E-1,7.087872E0,2.2459842E2,2.4757103E1,8.390337E0,8.90667E0,1.7821684E1,7.3285713E0,7.405984E0,9.143474E0,2.3270608E-3,-4.3952467E-5,-3.0269625E-4,2.408893E1,-1.2660743E-3,2.0654545E1,1.1291414E2,7.1802197E0,-2.5452138E-3,-1.0864735E-4,8.301396E0,8.545157E0,-4.5060874E-3,1.2E1,4.6766996E-3,1.6062022E-3,4E0,1E1,1.4E1,8.282231E0,1.1685933E2,2.284141E1,8.728865E0,-2.3617745E-4,2.5384428E-4,7.785559E-4,9.67017E1,2.2729198E1,3.3651353E-3,2.7E1,1.5781097E-4,-3.6532977E-3,1.8767811E-3,4.5727324E-4,-1.8329805E-4,-2.7930916E-3,7.635713E-4,-1.117352E-3,3.1213762E-4,2.4344923E-3,8.5349684E-4,-3.7272386E-3,2.5730075E-3,-3.452897E-4,-1.0328293E-4,-3.5599114E-3,5.183816E-4,-6.110072E-4,4.501319E-3,1.7218114E-3,-8.26342E-5,2.6914645E-3,-1.6878982E-3,9.946466E-4,8.01015E-5,2.1137714E-3],"split_indices":[6,6,6,3,1,3,1,3,3,0,0,0,2,1,0,3,3,0,2,0,3,0,0,0,0,0,0,1,2,0,0,3,3,0,6,0,0,6,6,6,3,1,0,3,0,0,0,1,0,0,6,0,0,0,0,0,0,0,0,0,0,0,0,0,0,0,0,0,0,0,0,0,0,0,0,0,0],"split_type":[0,0,0,0,0,0,0,0,0,0,0,0,0,0,0,0,0,0,0,0,0,0,0,0,0,0,0,0,0,0,0,0,0,0,0,0,0,0,0,0,0,0,0,0,0,0,0,0,0,0,0,0,0,0,0,0,0,0,0,0,0,0,0,0,0,0,0,0,0,0,0,0,0,0,0,0,0],"sum_hessian":[2.84E2,1.52E2,1.32E2,1.14E2,3.8E1,1.2E1,1.2E2,9.7E1,1.7E1,3.5E1,3E0,7E0,5E0,1.17E2,3E0,6.7E1,3E1,3E0,1.4E1,2.7E1,8E0,2E0,1E0,1E0,6E0,1E0,4E0,1.02E2,1.5E1,2E0,1E0,3.1E1,3.6E1,2E0,2.8E1,1E0,2E0,9E0,5E0,9E0,1.8E1,6E0,2E0,5E0,1E0,3E0,1E0,7.9E1,2.3E1,1E0,1.4E1,2.7E1,4E0,9E0,2.7E1,2.5E1,3E0,3E0,6E0,3E0,2E0,3E0,6E0,3E0,1.5E1,1E0,5E0,1E0,1E0,3E0,2E0,7E1,9E0,1.8E1,5E0,9E0,5E0],"tree_param":{"num_deleted":"0","num_feature":"7","num_nodes":"77","size_leaf_vector":"1"}},{"base_weights":[5.242532E-5,-3.1579018E-3,1.6855157E-4,4.9157935E-4,-6.9056987E-3,4.4210753E-3,7.3777795E-5,-1.3754368E-3,8.451224E-4,-2.674395E-3,1.6951561E-4,5.7445047E-3,-3.2941104E-4,-1.8663853E-3,3.3215882E-4,7.3671345E-6,-5.550861E-4,4.8547986E-4,1.9114495E-3,-1.0928647E-3,-3.8768293E-3,